{"input_dim": 13, "hidden_dim": 32, "feature_names": ["semantic_sim", "lexical_sim_bm25", "cross_substrate_agreement", "recency_baseline", "source_type", "max_substrate_score", "singleton_raw_turn_hit", "entity_overlap", "claim_graph_relevance", "supersede_edge_count", "validity_interval_freshness", "contradiction_count", "time_volatility"], "state_dict": {"fc1.weight": [[-0.022274214774370193, 0.12828171253204346, -0.24842604994773865, -0.16973768174648285, -0.1269470751285553, 0.054276954382658005, 0.00017594359815120697, 0.19973281025886536, -0.044378358870744705, 0.040397897362709045, -0.1039617583155632, -0.022443829104304314, -0.2304387241601944], [-0.20834332704544067, -0.13810311257839203, -0.018870562314987183, 0.07589268684387207, 0.13699592649936676, -0.2132715880870819, -0.08689162135124207, 0.08548469841480255, 0.20801441371440887, -0.024835191667079926, 0.17811839282512665, -0.05925491824746132, 0.0013577996287494898], [0.2166343629360199, -0.22277717292308807, -0.1403428167104721, -0.037335608154535294, -0.0743778795003891, 0.20515675842761993, -0.1454898864030838, -0.09372133016586304, -0.15942905843257904, -0.22523809969425201, -0.12770481407642365, 0.2039385586977005, 0.08984420448541641], [0.10041289776563644, -0.001686212606728077, -0.11786524951457977, 0.015497793443500996, -0.22444476187229156, -0.1780158430337906, -0.11865010112524033, 0.1481451690196991, 0.12841665744781494, -0.08909647166728973, -0.0006637938786298037, 0.14310993254184723, 0.24117617309093475], [0.12078747898340225, 0.04302983731031418, 0.1767817586660385, -0.12910109758377075, 0.038831062614917755, -0.20409487187862396, -0.20046325027942657, -0.1291150599718094, 0.13645246624946594, 0.07776135206222534, -0.1769111454486847, 0.06946220993995667, 0.11811817437410355], [-0.03321094065904617, 0.014022855088114738, 0.09063296765089035, 0.13781386613845825, 0.29496291279792786, -0.21015062928199768, -0.06800110638141632, 0.10423918813467026, 0.23093193769454956, 0.20687417685985565, 0.2733800411224365, 0.0722200870513916, -0.2067013680934906], [0.03881099075078964, -0.1417829394340515, -0.23319938778877258, 0.2119341492652893, 0.2281857430934906, -0.2444864809513092, 0.0200335755944252, -0.015317720361053944, -0.014352993108332157, -0.09301353245973587, 0.12550432980060577, -0.13006699085235596, 0.06803426891565323], [0.1633407473564148, 0.22728455066680908, 0.09768891334533691, -0.2399585247039795, -0.1976553499698639, 0.16961945593357086, 0.08595030009746552, -0.1829865276813507, -0.13650885224342346, 0.22639745473861694, 0.16898120939731598, -0.13785280287265778, -0.036940474063158035], [-0.23317743837833405, -0.005473737604916096, -0.20975960791110992, -0.17952990531921387, -0.019623205065727234, 0.03150898218154907, -0.079780213534832, 0.13154375553131104, -0.13454675674438477, 0.2171585112810135, 0.18238358199596405, -0.19942446053028107, -0.03619367629289627], [0.035385508090257645, 0.06166919693350792, 0.08868887275457382, 0.07509708404541016, 0.03951994329690933, -0.1123809814453125, 0.0972549095749855, -0.24208582937717438, -0.14129605889320374, -0.03657906875014305, -0.11196280270814896, -0.06346283853054047, -0.19287872314453125], [-0.034348372370004654, 0.08450593054294586, -0.1624671220779419, 0.001529318280518055, 0.21437017619609833, -0.004359718412160873, 0.0009567289962433279, 0.001300579053349793, 0.08033853024244308, 0.14208252727985382, 0.27848246693611145, 0.15666824579238892, 0.22879581153392792], [0.00255052512511611, -0.21465425193309784, -0.09749912470579147, 0.15452887117862701, 0.00017097668023779988, -0.10381723940372467, -0.17813490331172943, -0.22504191100597382, -0.19962511956691742, -0.024065682664513588, 0.11796213686466217, 0.11582227796316147, -0.232953280210495], [0.13875383138656616, -0.18261398375034332, -0.026297008618712425, -0.07866854965686798, -0.021427297964692116, -0.02238641306757927, -0.21438537538051605, -0.20500102639198303, -0.012377817183732986, -0.0001854578295024112, -0.09205691516399384, 0.07079543173313141, -0.2151348888874054], [-0.03855949267745018, 0.22317326068878174, -0.13190706074237823, 0.2159498780965805, 0.08118920028209686, -0.2689915895462036, 0.16914351284503937, -0.050709888339042664, -0.14330381155014038, 0.18735535442829132, -0.2423647791147232, 0.0016256289090961218, -0.025764314457774162], [0.17846983671188354, 0.05521884188055992, 0.1235264465212822, 0.06436936557292938, -0.07660748064517975, -0.077493816614151, -0.19411242008209229, 0.12670007348060608, 0.20061010122299194, 0.15544599294662476, -0.20546600222587585, 0.025565046817064285, -0.16116821765899658], [-0.13145814836025238, -0.13920177519321442, 0.12867838144302368, -0.1310628205537796, 0.02938760258257389, -0.01266529317945242, 0.15034018456935883, -0.23990842700004578, -0.17003917694091797, -0.1268555223941803, 0.22955840826034546, -0.07803842425346375, 0.19948142766952515], [0.11577201634645462, 0.054085005074739456, 0.01576206088066101, -0.022731782868504524, 0.05949769169092178, -0.06420496106147766, -0.030669691041111946, 0.03951247036457062, -0.2015811949968338, -0.11127401143312454, 0.2485177218914032, -0.21910317242145538, 0.0025654162745922804], [0.27754107117652893, 0.10965564846992493, 0.009946420788764954, -0.20587877929210663, 0.13459350168704987, -0.1936044991016388, -0.04557240009307861, -0.08353880792856216, -0.03735300898551941, 0.0001938896457431838, 0.22586432099342346, 0.03005610592663288, 0.213926762342453], [0.18846380710601807, -0.1578611135482788, 0.15822657942771912, -0.16171039640903473, -0.08253451436758041, 0.05240814387798309, 0.06335810571908951, 0.1753881424665451, -0.07186801731586456, 6.18036647210829e-05, 0.1777941733598709, -0.24174010753631592, 0.16615580022335052], [-0.20526771247386932, -0.008052457123994827, -0.05859087035059929, -0.11197406053543091, 0.0239443089812994, 0.20384159684181213, -0.047853197902441025, -0.13070334494113922, -0.0790562704205513, -0.24034979939460754, 0.11149372905492783, -0.0992002785205841, -0.15078167617321014], [-0.1567012369632721, 0.16908444464206696, 0.1356881707906723, 0.1784694939851761, 0.0765465646982193, -0.0652189552783966, -0.04947667941451073, 0.10878679901361465, 0.23119649291038513, 0.04235119745135307, -0.1552138328552246, -0.14159871637821198, -0.22770386934280396], [0.027510065585374832, -0.12148402631282806, -0.2127874344587326, 0.2087196260690689, -0.14582990109920502, -0.002842893125489354, 0.04628113657236099, 0.0009977415902540088, -0.15231238305568695, -0.18975301086902618, 0.18664436042308807, 0.01392912957817316, 0.19564583897590637], [-0.09533042460680008, 0.08166012912988663, -0.06259214878082275, 0.0005417793872766197, -0.17481622099876404, 0.1037222370505333, 0.11522247642278671, 0.0034410879015922546, -0.06486082822084427, -0.1367245316505432, 0.18553496897220612, -0.17208333313465118, 0.0798172578215599], [-0.05976486951112747, -0.0998065248131752, 0.01812131144106388, -0.10998663306236267, 0.031288374215364456, 0.02239624410867691, -0.17154847085475922, 0.014831487089395523, 0.08427593111991882, 0.07602838426828384, -0.005332640837877989, -0.1929246485233307, -0.011816336773335934], [0.06277459859848022, -0.06756632030010223, 0.07158316671848297, 0.15040113031864166, -0.11072872579097748, 0.00030126789351925254, 0.08086777478456497, -0.00224510976113379, -0.00181422452442348, 0.005115878768265247, -0.18362019956111908, -0.0022304204758256674, 0.15772399306297302], [0.27642273902893066, 0.19062986969947815, 0.05711805447936058, 0.09555750340223312, -0.11500943452119827, -0.20360377430915833, -0.2040279656648636, 0.3047468662261963, 0.20231081545352936, -0.15738244354724884, 0.12837262451648712, 0.18778319656848907, 0.24269385635852814], [0.22259409725666046, 0.19220413267612457, -0.0784076601266861, -0.06376489251852036, 0.21380670368671417, 0.13590283691883087, -0.13268135488033295, 0.2262357771396637, 0.11443541198968887, 0.1170608401298523, -0.18745936453342438, 0.08625033497810364, -0.06366156041622162], [0.23601193726062775, -0.028970662504434586, 0.13625675439834595, 0.0176105834543705, 0.15063460171222687, -0.11028466373682022, 0.10733573883771896, -0.2117111086845398, 0.08158157765865326, -0.153337299823761, -0.2409389764070511, -0.2063731551170349, 0.1845390349626541], [0.12503892183303833, 0.233372762799263, 0.21119076013565063, -0.21319402754306793, -0.19979582726955414, -0.06935673207044601, -0.145835742354393, 0.16522525250911713, -0.23426945507526398, -0.10130111128091812, -0.2784288823604584, -0.12329361587762833, 0.19366872310638428], [0.20553113520145416, 0.1796925663948059, 0.18616893887519836, 0.21212616562843323, -0.10215695947408676, 0.11194156110286713, 0.2756801247596741, 0.08233419060707092, 0.25618892908096313, 0.10976799577474594, 0.14124616980552673, -0.09897784143686295, 0.09908033907413483], [0.003067607060074806, -0.03351624682545662, -0.12668205797672272, -0.12146585434675217, -0.17901118099689484, 0.21753743290901184, 0.22679783403873444, 0.0007756726699881256, -0.12631067633628845, 0.17995816469192505, 0.1430901288986206, -0.0024751634337008, -0.09696522355079651], [0.23075661063194275, 0.08873604983091354, -0.2257128208875656, 0.23091882467269897, 0.1898588389158249, -0.12218400835990906, 0.18082794547080994, -0.182942196726799, -0.06727585941553116, 0.20103424787521362, -0.0090941172093153, -0.16179940104484558, -0.05921518802642822]], "fc1.bias": [-0.09543507546186447, -0.08290018886327744, -0.0002996631956193596, 0.2468855381011963, 0.0015754945343360305, -0.14248555898666382, 0.03433907777070999, 0.12924151122570038, 0.1307147592306137, -0.23016583919525146, -0.03355090320110321, -0.17172956466674805, -0.08448341488838196, 0.08008833229541779, -0.20678313076496124, 0.13437481224536896, 0.24821080267429352, 0.015517371706664562, -0.15591563284397125, -0.11048119515180588, 0.05630451440811157, -0.17703059315681458, 0.14263524115085602, -0.21729673445224762, -0.23208440840244293, -0.2495444416999817, -0.06997190415859222, 0.20797114074230194, -0.27299219369888306, 0.20394426584243774, -0.08128878474235535, 0.09191939234733582], "fc2.weight": [[-0.011418554000556469, -0.12981151044368744, 0.11250366270542145, 0.06557068973779678, 0.16395753622055054, 0.09505028277635574, -0.08657567203044891, 0.12286768108606339, 0.03312169015407562, 0.061448920518159866, -0.16532953083515167, -0.019054317846894264, -0.13931822776794434, -0.09145691245794296, 0.013030778616666794, -0.10647477209568024, 0.04945477843284607, 0.07735192775726318, 0.05435458943247795, -0.09267254173755646, -0.1596517413854599, -0.02246345579624176, 0.05110089108347893, 0.14011329412460327, 0.06801222264766693, -0.04685055837035179, 0.036327194422483444, -0.16090735793113708, -0.1763327419757843, 0.05978887155652046, -0.131507009267807, 0.06454627215862274], [-0.1032763123512268, -0.057172004133462906, -0.11151348054409027, 0.06109194830060005, -0.008097916841506958, 0.1563398241996765, 0.09250883758068085, 0.08545120805501938, 0.02971799671649933, -0.03375248610973358, -0.04251151904463768, -0.0016963081434369087, 0.05425000935792923, -0.1417706161737442, 0.12626157701015472, 0.013651334680616856, -0.13172122836112976, -0.08810470253229141, 0.18618911504745483, 0.12811261415481567, -0.1675318479537964, 0.09075670689344406, 0.05878147482872009, 0.07095295190811157, 0.11552403122186661, -0.1187964603304863, 0.03339352831244469, 0.0864126905798912, -0.07367733865976334, 0.050156038254499435, -0.08257755637168884, 0.09675873070955276], [-0.017414459958672523, -0.0331963375210762, 0.013346060179173946, 0.030145157128572464, -0.05301642417907715, -0.002083040541037917, 0.06879662722349167, 0.0025351380463689566, 0.02177690528333187, -0.011713611893355846, 0.029440967366099358, -0.09410042315721512, -0.0702754333615303, -0.056305333971977234, 0.12826097011566162, -0.01607672870159149, -6.0861988458782434e-05, -0.0523124560713768, 0.14220620691776276, 0.13840201497077942, -0.09932068735361099, -0.10922815650701523, -0.0999879240989685, 1.582764889462851e-05, -0.013838590122759342, -0.08188023418188095, -0.03081415593624115, 0.00418220367282629, -0.058886341750621796, 0.008763760328292847, -0.009913412854075432, -0.05232417955994606], [-0.001382175600156188, 0.11126229166984558, -0.08564443141222, 0.0010263379663228989, -0.03251584991812706, 0.13921776413917542, -0.13349293172359467, -0.13523392379283905, 0.13993534445762634, -0.07806315273046494, 0.004552559927105904, 0.0019538116175681353, -0.007176291663199663, -0.009024429135024548, 0.07854333519935608, 0.0010299267014488578, -0.13786444067955017, -0.07068150490522385, -0.027833543717861176, 0.055548328906297684, -0.08058535307645798, 0.132465198636055, -0.008932976052165031, -0.002977463649585843, 0.10447107255458832, 0.055443037301301956, 0.11580348759889603, 0.0686066672205925, -0.02161630243062973, -0.08344031125307083, 0.0009906458435580134, 0.11220670491456985], [-0.026952043175697327, -0.1297307312488556, 0.039504919201135635, 0.13783927261829376, -0.018578318879008293, -0.11227443069219589, -0.1261599063873291, 0.013167123310267925, 0.0011130389757454395, -0.05585476756095886, 0.005972566083073616, 0.0343746542930603, 0.10653431713581085, 0.10321243852376938, 0.0003433585225138813, -0.1217145323753357, -0.1255558282136917, 0.13084197044372559, 0.045004405081272125, 0.043949566781520844, -0.11880730837583542, 0.12949258089065552, 0.13324318826198578, 0.12542173266410828, -0.11500690132379532, -0.033962249755859375, -0.08768820762634277, 0.13317671418190002, -0.04288218542933464, -0.04749628156423569, 0.05913286283612251, -0.04853550344705582], [-0.053699035197496414, 0.002027454786002636, 0.0024397841189056635, -0.10366778820753098, 0.11326553672552109, -0.04484415426850319, 0.03014872968196869, 0.11960890889167786, 0.05573871359229088, -0.0010553908068686724, 0.11628417670726776, -0.001593740307725966, -0.04854659363627434, 0.13300685584545135, 0.011025574058294296, -0.13822799921035767, -0.018579663708806038, -0.08653430640697479, 0.12083341926336288, -0.001259685610421002, -0.126944899559021, -0.00013487719115801156, 0.0772467628121376, 0.014607107266783714, 0.02372995764017105, -0.002313216682523489, 0.033200234174728394, -0.012092206627130508, -0.0374380387365818, -0.1310211420059204, -0.09917173534631729, 0.043520085513591766], [-0.0830957368016243, -0.0066122268326580524, 0.024223575368523598, -0.00592256523668766, -0.10240904241800308, 0.16223543882369995, -0.09239159524440765, 0.17176948487758636, -0.1587279736995697, -0.019570473581552505, 0.12105265259742737, -0.03927496820688248, 0.11438490450382233, -0.09682441502809525, -0.1209782287478447, -0.11341995745897293, 0.035273171961307526, 0.18120287358760834, -0.11486941576004028, 0.039091553539037704, -0.01997574418783188, -0.008072265423834324, 0.1588137447834015, -0.10296754539012909, -0.002616569632664323, 0.19516287744045258, 0.003607228398323059, 0.12417614459991455, -0.026868421584367752, 0.1666053682565689, -0.13837675750255585, -0.0028906427323818207], [-0.04644263908267021, 0.08717802166938782, 0.03650727868080139, 0.10243815183639526, -0.03296509385108948, 0.003107468830421567, 0.09700710326433182, -0.06857774406671524, 0.15873344242572784, -0.13134638965129852, -0.03728344291448593, -0.0008478182135149837, 0.045717883855104446, 0.10234375298023224, -0.05019818991422653, -0.11366673558950424, 0.08672361820936203, 0.04097595065832138, 0.10091749578714371, -0.0788143128156662, 0.09550092369318008, 0.13321007788181305, -0.008506648242473602, -0.13090509176254272, 0.09017760306596756, -0.15449891984462738, 0.01817966438829899, 0.03968764841556549, -0.10461951047182083, 0.042495567351579666, -0.1893487125635147, 0.023734183982014656], [-0.07828328013420105, 0.012248608283698559, -0.0019585657864809036, 0.12118222564458847, -0.07207991927862167, 0.13527582585811615, -0.0007866427185945213, -0.09078031778335571, -0.1265476644039154, -0.13968034088611603, 0.1747744232416153, -0.012980669736862183, 0.000998597708530724, 0.03649253025650978, 0.10055705904960632, 0.1842605471611023, 0.16160577535629272, -0.12066429853439331, 0.002111634239554405, -0.08215030282735825, -0.10159092396497726, 0.011105689220130444, 0.13699278235435486, -0.10754936188459396, 0.07326826453208923, -0.10945436358451843, -0.053865697234869, 0.15646573901176453, -0.05562882497906685, 0.012209413573145866, -0.15556620061397552, 0.1445922553539276], [-0.007005961611866951, -0.09748225659132004, 0.019895439967513084, -0.09763547778129578, -0.114820696413517, 0.04112124443054199, 0.14567333459854126, -0.0386020764708519, 0.1080310270190239, 0.12332765758037567, 0.13550584018230438, -0.05924522876739502, 0.0026047369465231895, -0.048573870211839676, -0.1455661654472351, 0.033453598618507385, 0.1618356555700302, 0.17355088889598846, 0.046114444732666016, 0.04677166789770126, -0.058875977993011475, 0.09943566471338272, -0.1056278720498085, -0.08889355510473251, 7.394544081762433e-05, 0.09680461883544922, -0.16445031762123108, 0.1849471777677536, 0.06249108165502548, -0.10959421098232269, -0.07011660188436508, 0.17131075263023376], [-0.1016082689166069, -0.019808778539299965, 0.02568049356341362, -0.12071605026721954, 0.0633472204208374, 0.058549538254737854, 0.07588440179824829, -0.07891112565994263, 0.14180339872837067, -0.07109981775283813, 0.1422150880098343, -0.1354149430990219, -0.12333182245492935, 0.07483616471290588, -0.0026093116030097008, 0.0005834333132952452, -0.06431324779987335, -0.04113570600748062, -0.019826700910925865, -0.13795959949493408, 0.0009315376519225538, 0.0026418103370815516, 5.122805305290967e-05, 0.02484257146716118, 0.13350838422775269, 0.015568389557301998, -0.03206097334623337, -0.0397811233997345, -0.0793054848909378, -0.08864263445138931, -0.0008078014943748713, -0.002642635256052017], [0.06829184293746948, -0.046909742057323456, 0.1068650484085083, -0.09012341499328613, 0.0015841381391510367, 0.1682078242301941, 0.1477024108171463, -0.11150780320167542, 0.0085092568770051, 0.010448161512613297, -0.09609124809503555, -0.028602132573723793, 0.016358623281121254, -0.1351642608642578, 0.01401070412248373, 0.10975837707519531, -0.06291079521179199, 0.14187076687812805, 0.021378125995397568, 0.04681556299328804, 0.16660276055335999, -0.021995728835463524, 0.08200917392969131, -0.01879584603011608, 0.0006729739252477884, -0.045861560851335526, -0.01647588424384594, -0.043680351227521896, 0.0268623735755682, 0.0005985198076814413, 0.07827260345220566, -0.04745236784219742], [0.00020500211394391954, -0.038728438317775726, -0.11393023282289505, 0.039516523480415344, 0.011639337986707687, -0.06581640988588333, -0.02970605157315731, 0.023637384176254272, -0.009224748238921165, 0.09327484667301178, -0.01192483864724636, 0.034032221883535385, 0.04391337186098099, -0.06373493373394012, 0.05376675724983215, 0.16050133109092712, 0.0013291342183947563, 0.01833248883485794, 0.034532997757196426, 0.09024461358785629, -0.09521624445915222, -0.060460690408945084, 0.05313767492771149, -0.11970212310552597, 0.000280141131952405, -0.10584151744842529, 0.0934334471821785, -0.15253958106040955, 0.08419269323348999, 0.15403695404529572, 0.005583695136010647, -0.030253224074840546], [0.1991620808839798, -0.11236139386892319, 0.0014980415580794215, -0.04592365771532059, -0.011895478703081608, 0.02981545776128769, -0.0061371810734272, -0.004114494659006596, -0.1509215533733368, 0.03205745294690132, 0.021837785840034485, -0.0002722570498008281, 0.10143569111824036, 0.20082293450832367, -0.07279834151268005, -0.04639628157019615, -0.06445520371198654, -0.14267238974571228, -0.15826250612735748, 0.13204532861709595, 0.13017718493938446, 0.06142912432551384, 0.13139592111110687, -0.1063869297504425, -0.0026124040596187115, 0.1967352330684662, -0.06654705852270126, 0.14277295768260956, 0.07808733731508255, 0.1513831466436386, -0.04212120920419693, 0.10853902995586395], [-0.12254411727190018, 0.024018719792366028, 0.026607291772961617, 0.025135913863778114, 0.1784006655216217, 0.20793049037456512, 0.13610920310020447, 0.13885287940502167, 0.12956777215003967, -0.0069428058341145515, -0.10527069121599197, -0.03293125331401825, 0.002572010038420558, -0.07549741864204407, 0.0893658697605133, 0.0970781147480011, 0.062287587672472, 0.07426781207323074, 0.18592891097068787, 0.030815137550234795, -0.12859922647476196, -0.09436080604791641, 0.047110430896282196, -0.0014631700469180942, 0.052864447236061096, -0.17623580992221832, -0.16407367587089539, 0.1372089684009552, 0.1140354722738266, -0.1374310851097107, 0.03395078331232071, -0.10243280977010727], [0.09986785054206848, 0.023331662639975548, 0.14053398370742798, -0.14004220068454742, -0.13594014942646027, 0.08564840257167816, 0.12277878075838089, 0.07457170635461807, 0.08367756009101868, -0.11477626860141754, 0.09399875998497009, -0.13268107175827026, 0.009032400324940681, -0.08196572959423065, -0.037335123866796494, 0.002667670603841543, -0.03665218874812126, -0.0005066989688202739, -0.13332778215408325, -0.13245706260204315, 0.035664089024066925, -0.04178619012236595, -0.07382355630397797, -0.03689059987664223, -0.11043903976678848, -0.10725048184394836, 0.0720774307847023, 0.05641810595989227, -0.0016763063613325357, -0.06301052868366241, 0.026465682312846184, 0.0009998739697039127], [-0.09239797294139862, 0.008622555062174797, 0.12677240371704102, -0.14310511946678162, -0.2045413851737976, -0.009327804669737816, 0.1048530712723732, -0.13193006813526154, 0.01448731031268835, 0.09035183489322662, 0.020217694342136383, 0.008006547577679157, 0.14210693538188934, 0.09620041400194168, -0.10429685562849045, -0.016344906762242317, 0.05877196043729782, 0.12554438412189484, -0.20580576360225677, 0.0749153420329094, -0.07885816693305969, -0.13885089755058289, 0.06617145985364914, -0.06268994510173798, -0.0010445951484143734, -0.12287579476833344, -0.13751669228076935, -0.0441848523914814, -0.06742226332426071, 0.0780995711684227, 0.046745896339416504, 0.10921712219715118], [0.003981642425060272, -0.02461576648056507, 0.08586376905441284, 0.0007941628573462367, 0.0040194252505898476, -0.024625910446047783, -5.652908657793887e-05, -0.004626045934855938, 0.0018675990868359804, -0.10382582247257233, -0.0001298910065088421, -0.11262916773557663, -0.007820709608495235, 0.06879846006631851, -0.08901561051607132, -0.08528990298509598, -0.01217295229434967, -0.016882432624697685, 0.0017340066842734814, 0.0013578904327005148, 0.056219831109046936, -0.08788358420133591, 0.0006206681719049811, 0.06527490168809891, 0.1187634989619255, 0.0008519802358932793, -0.06863724440336227, 0.019027773290872574, 0.06704626977443695, -0.07667730748653412, -0.06892852485179901, 0.04499463364481926], [-0.030790776014328003, -0.13870462775230408, -0.06828303635120392, 0.04093397036194801, -0.07116425037384033, 0.12716685235500336, 0.11647921800613403, 0.0021279752254486084, 0.008848857134580612, -0.07706274092197418, -0.03172452002763748, 0.0032876506447792053, -0.10101497173309326, -0.06366439908742905, -0.170796200633049, 0.1396884322166443, -0.1192651242017746, 0.14453928172588348, -0.016497034579515457, -0.07360918819904327, 0.06333393603563309, -0.0003998656175099313, 0.09726283699274063, 0.04079285264015198, -0.1360568106174469, 0.08606589585542679, -0.057654574513435364, -0.0660286545753479, 0.08814218640327454, 0.10719706118106842, -0.18572211265563965, -0.03537250682711601], [0.1259031444787979, 0.09759275615215302, 0.11481102555990219, -0.03257628157734871, -0.10896997153759003, 0.1575714349746704, 0.07391243427991867, 0.14532281458377838, -0.04878954216837883, -0.13474710285663605, -0.04414379224181175, -0.13222956657409668, 0.03644740581512451, 0.10806875675916672, 0.017677798867225647, 0.014535917900502682, 0.08074411004781723, -0.12950152158737183, 0.20227469503879547, -0.14710500836372375, -0.1916465014219284, -0.010967990383505821, 0.11826135963201523, -0.002548829885199666, 0.03510124981403351, -0.15618306398391724, 0.03915838524699211, -0.007509381510317326, 0.045829370617866516, 0.10241705924272537, 0.04539576545357704, -0.03521142527461052], [-0.000252022931817919, -0.10231542587280273, -0.03132426366209984, 0.08105775713920593, -0.05162915959954262, 0.09434070438146591, -0.05207766965031624, -0.03675050660967827, -0.005335204303264618, -0.1280243843793869, -0.00407702149823308, 0.0025620153173804283, 0.0021639640908688307, -0.0056637609377503395, 0.10531644523143768, 0.11431775987148285, -0.11401474475860596, 0.06750808656215668, -0.10503697395324707, -0.1163656935095787, 0.037383321672677994, 0.00030169941601343453, -0.06506870687007904, -0.13626165688037872, -0.035625558346509933, 0.026681983843445778, -0.1294197291135788, -0.15489605069160461, -0.0020552014466375113, -0.1215905249118805, -0.12071520835161209, -0.055831652134656906], [-0.0008025052957236767, -0.12644916772842407, -0.08418415486812592, -0.00012561652692966163, -0.13247430324554443, 0.0011380799114704132, -0.08033536374568939, -0.08864586800336838, 0.03662685677409172, -0.10203871876001358, -0.09996014833450317, 0.06718617677688599, 0.003924601711332798, 0.12680208683013916, -0.015792375430464745, -0.05205683782696724, 0.0022985825780779123, 2.2379474103217945e-05, 0.10080340504646301, -0.14181730151176453, 0.0006825163145549595, 0.045055389404296875, -0.06377888470888138, -0.05640057474374771, 0.05210048332810402, -0.13515017926692963, 0.011067445389926434, -0.10282732546329498, 0.05448385328054428, -0.1170189157128334, 0.07494229078292847, -0.13311819732189178], [-0.11447688192129135, 0.0003025535843335092, 0.10524823516607285, -0.11725697666406631, -0.045692071318626404, 0.12110220640897751, -0.0015499296132475138, 0.04024864360690117, -0.1358208954334259, -0.023445535451173782, -0.056347157806158066, 0.11491494625806808, 0.040377650409936905, -0.09502552449703217, 0.0008269670070149004, 2.365047112107277e-05, -0.03966560214757919, -0.06732451915740967, -0.02632211707532406, 0.1052900031208992, -0.09277960658073425, -0.09199007600545883, -0.02246386930346489, 0.00017014757031574845, 0.016575269401073456, -0.00028176483465358615, -0.01164293009787798, -0.07346799224615097, -0.0029612742364406586, -0.038247376680374146, 0.10874707996845245, -0.13782840967178345], [-0.07896558195352554, -0.10808779299259186, -0.0033813456539064646, 0.10445253551006317, 0.1570001095533371, -0.11945806443691254, 0.01577669009566307, 0.10764492303133011, 0.06248663365840912, 0.11211194097995758, 0.021436622366309166, -0.08491233736276627, 0.08310089260339737, -0.033037327229976654, 0.06900756061077118, -0.010942209511995316, 0.0837770476937294, 0.1649438589811325, 0.16658727824687958, -0.12668827176094055, -0.08420708030462265, -0.040108971297740936, -0.09012594074010849, 0.13538150489330292, 0.002078376477584243, -0.09082331508398056, -0.05449415370821953, -0.0648588091135025, 0.05603957176208496, -0.12344738095998764, -0.14565719664096832, -0.13706377148628235], [0.04302678257226944, 0.05403304845094681, -0.07603679597377777, 0.012760302051901817, 0.09651629626750946, -0.000740902847610414, -0.007308803033083677, -0.0009414608939550817, 0.0026166888419538736, 0.05559726804494858, -0.08615721762180328, 0.05622086301445961, 0.06602814048528671, -0.0733850747346878, 0.11026264727115631, 0.1393723338842392, -0.03683049604296684, -0.017838601022958755, 0.05470750108361244, -0.10444693267345428, 0.037039533257484436, 0.010513823479413986, 0.07765115052461624, -0.11940215528011322, -0.11275925487279892, 0.04621944576501846, 0.031073136255145073, -0.130327969789505, -0.06499122828245163, -0.12755204737186432, -0.0927044227719307, -0.04657534882426262], [0.12727534770965576, -0.021386025473475456, 0.06789430975914001, 0.13365435600280762, 0.05596250668168068, -0.18247294425964355, 0.05554942041635513, 0.04130822420120239, 0.13336168229579926, -0.19506247341632843, 0.08172786980867386, 0.11060980707406998, -0.13025729358196259, -0.003949978854507208, 0.1263473480939865, -0.11375576257705688, 0.032133180648088455, 0.05237280949950218, 0.055462200194597244, 0.14117860794067383, 0.11921326071023941, 0.11753085255622864, -0.045334842056035995, 0.11415126919746399, -0.130529522895813, -0.12187305837869644, -0.06279761344194412, -0.06475271284580231, 0.1384279727935791, 0.05812118574976921, 0.08000533282756805, 0.09943167865276337], [-0.11662007868289948, -0.05097499117255211, -0.0006772581255063415, 0.020135929808020592, 0.08752472698688507, -0.08599147945642471, -0.06599128246307373, 0.16603484749794006, -0.0718853697180748, -0.09440826624631882, 0.1336899846792221, 0.0858326330780983, -0.02329481951892376, -0.011021518148481846, -0.10467962175607681, -0.1805497705936432, 0.05798112228512764, -0.07403067499399185, 0.11048736423254013, -0.1345895230770111, -0.013217071071267128, -0.00033135447301901877, 0.12278720736503601, 0.10899317264556885, 0.08584120124578476, 0.10509417951107025, -0.05483149737119675, -0.13879278302192688, -0.1324136108160019, 0.023557301610708237, 0.2032647579908371, -0.012171858921647072], [-0.016122737899422646, -0.0945032462477684, 0.022215893492102623, 0.07903856784105301, -0.18251489102840424, -0.13264711201190948, 0.09695839881896973, 0.03425450623035431, 0.0002813661121763289, 0.023192448541522026, -0.03547912836074829, -0.08964817970991135, -0.13097217679023743, 0.10867991298437119, -0.02975618839263916, -0.06444267928600311, -0.05115789547562599, -0.10499079525470734, -0.06200896203517914, -0.11806198954582214, 0.12407778948545456, 0.039234332740306854, -0.09615889191627502, -0.02790256030857563, 0.046134959906339645, -0.07424502074718475, 0.03781159222126007, 0.050709545612335205, -0.12001987546682358, 0.03707265481352806, -0.0016048159450292587, 0.14632931351661682], [-0.04348671808838844, -0.0761372298002243, 0.11817129701375961, -0.11605720967054367, 0.024617943912744522, 0.16403615474700928, -0.08955442905426025, 0.19498786330223083, 0.13043278455734253, 0.18644148111343384, 0.007472544442862272, 0.12573334574699402, -0.04391730576753616, -0.036821868270635605, 0.09310029447078705, 0.004317034035921097, 0.10420240461826324, 0.18598343431949615, -0.1408141702413559, 0.07440619170665741, 0.08261047303676605, 0.05976661294698715, 0.11147325485944748, -0.03341178968548775, -0.10566357523202896, 0.16943363845348358, -0.07404191792011261, 0.10035250335931778, -0.141949862241745, -0.007085361517965794, 0.03380323201417923, 0.05206412449479103], [0.00270729698240757, 0.08694455772638321, 0.002585676498711109, 0.01565229333937168, 0.19506783783435822, -0.08423824608325958, 0.01514139398932457, -0.066138856112957, 0.1309579759836197, 0.12484194338321686, -0.003947763703763485, -0.028792692348361015, -0.07547631114721298, 0.11462218314409256, -0.023870497941970825, 0.1951589286327362, 0.1240827888250351, 0.17288394272327423, 0.16204993426799774, -0.08113304525613785, 0.058304835110902786, -0.040312569588422775, 0.06875455379486084, 0.002167920581996441, -0.0019708441104739904, -0.1335461437702179, -0.1694396436214447, 0.08982281386852264, 0.02875327691435814, 0.023560386151075363, 0.08623506873846054, -0.08125793933868408], [0.030193421989679337, -0.06379257142543793, 0.00668415566906333, -0.009761065244674683, 0.08988652378320694, 0.12043455243110657, 0.11938760429620743, 0.0010013629216700792, 0.07056529819965363, -0.14235545694828033, -0.07002560794353485, 0.002872698474675417, 9.563571802573279e-05, -0.1047367975115776, -0.045099955052137375, -0.04930402711033821, -0.1408815234899521, -0.0024136295542120934, 0.08662642538547516, 0.038811564445495605, -0.0506967194378376, -0.12812988460063934, -0.10854493826627731, 3.5532182664610445e-05, 0.08771435916423798, -0.038659676909446716, -0.06264328956604004, -0.06078800559043884, 0.001970767043530941, -0.13364972174167633, -0.12183359265327454, 0.13976038992404938], [-0.05100429058074951, -0.003078097477555275, -0.015833240002393723, -0.12114151567220688, -0.0025722873397171497, 0.022069310769438744, -0.03884465619921684, -0.0009123578784056008, 2.1972919057589024e-05, -0.1417161375284195, 0.09450718760490417, 0.10871965438127518, 0.08664592355489731, -0.025749962776899338, 0.05889888480305672, -0.13141049444675446, -0.012668637558817863, -0.006147265434265137, -0.02988579496741295, 0.04122540354728699, -0.047342024743556976, 0.0024947498459368944, -0.019236858934164047, -0.13179045915603638, -0.001259095617569983, -0.11569034308195114, 0.06941784173250198, 0.06096264347434044, 0.1313875913619995, -0.026982558891177177, 0.0009728514705784619, 0.005113936960697174]], "fc2.bias": [0.1692875325679779, 0.17093713581562042, -0.058028288185596466, -0.11629216372966766, -0.12514537572860718, -0.051805611699819565, 0.1555013656616211, 0.055577345192432404, 0.18153062462806702, 0.15397602319717407, 0.00029606273164972663, -0.09712845087051392, 0.16535545885562897, 0.14752215147018433, 0.10361320525407791, -0.06301119178533554, 0.11245410889387131, -0.00222545163705945, 0.10970315337181091, 0.06665901839733124, 0.08083563297986984, -0.12096046656370163, -0.0644388496875763, 0.11349981278181076, -0.006845284253358841, -0.1765684336423874, 0.15618109703063965, -0.006950871087610722, 0.14959874749183655, -0.11909983307123184, 0.0284010898321867, -0.03385145589709282], "fc3.weight": [[-0.06110250949859619, -0.03998419642448425, -0.03274858742952347, 0.06330588459968567, -0.004323309287428856, 0.10002735257148743, 0.061797674745321274, -0.030645418912172318, -0.13198745250701904, -0.19713646173477173, -0.019718611612915993, -0.15955707430839539, -0.011129112914204597, 0.029182422906160355, -0.04643815755844116, -0.05347346514463425, 0.09856229275465012, 0.06595099717378616, -0.02303486131131649, -0.050506964325904846, 0.07761140167713165, 0.11965122073888779, -0.12766805291175842, -0.04664032533764839, 0.002310063922777772, -0.04072955995798111, 0.1611325442790985, -0.022688569501042366, 0.16375139355659485, -0.034270282834768295, 0.0026126012671738863, -0.06945227086544037]], "fc3.bias": [-0.051719553768634796]}}