{"input_dim": 13, "hidden_dim": 32, "feature_names": ["semantic_sim", "lexical_sim_bm25", "cross_substrate_agreement", "recency_baseline", "source_type", "max_substrate_score", "singleton_raw_turn_hit", "entity_overlap", "claim_graph_relevance", "supersede_edge_count", "validity_interval_freshness", "contradiction_count", "time_volatility"], "state_dict": {"fc1.weight": [[0.00024979724548757076, 0.12412843108177185, -0.20349028706550598, -0.17935892939567566, -0.08232112973928452, 0.05012957751750946, -0.000982301658950746, 0.1951354295015335, -0.0029388091061264277, 0.04915842041373253, -0.059476230293512344, -0.030619947239756584, -0.24015286564826965], [-0.17958219349384308, -0.10975106060504913, 0.006635216064751148, 0.0984678640961647, 0.15947413444519043, -0.18464411795139313, -0.09621034562587738, 0.09724835306406021, 0.2333836406469345, -0.03311993181705475, 0.20055128633975983, -0.021125607192516327, 0.01813090592622757], [0.22633163630962372, -0.2324822098016739, -0.14989328384399414, -0.04602492228150368, -0.0836029052734375, 0.21483838558197021, -0.15505456924438477, -0.10308219492435455, -0.169028177857399, -0.2349461317062378, -0.1372159868478775, 0.2136184275150299, 0.09918179363012314], [0.13704265654087067, -0.0027018492110073566, -0.128586545586586, 0.05863372981548309, -0.24418297410011292, -0.18154487013816833, -0.12208608537912369, 0.15028086304664612, 0.16239812970161438, -0.098429374396801, 0.001933814026415348, 0.15266817808151245, 0.2825218439102173], [0.099636010825634, 0.029992587864398956, 0.177583247423172, -0.13861696422100067, 0.042548954486846924, -0.22454066574573517, -0.1938309222459793, -0.14432239532470703, 0.1154068261384964, 0.08701417595148087, -0.17303360998630524, 0.05944710969924927, 0.12759463489055634], [-0.0408468060195446, 0.005612833425402641, 0.06493853032588959, 0.18229921162128448, 0.26860031485557556, -0.21869713068008423, -0.07716767489910126, 0.10758507251739502, 0.2240801304578781, 0.21655826270580292, 0.24703843891620636, 0.03128228709101677, -0.22345314919948578], [0.03921316936612129, -0.14880451560020447, -0.24485734105110168, 0.257370263338089, 0.22355934977531433, -0.2579931616783142, 0.02808476984500885, -0.026305148378014565, -0.0331508070230484, -0.1023702546954155, 0.11994561553001404, -0.13958601653575897, 0.1121513620018959], [0.14557552337646484, 0.20317812263965607, 0.10395604372024536, -0.24968329071998596, -0.183574840426445, 0.15051224827766418, 0.06098075583577156, -0.20990630984306335, -0.15442180633544922, 0.23610685765743256, 0.18280412256717682, -0.09636569023132324, -0.04561999440193176], [-0.24413053691387177, -0.011667503044009209, -0.21180285513401031, -0.18917003273963928, -0.025765419006347656, 0.02720913104712963, -0.08904868364334106, 0.14045101404190063, -0.1440800130367279, 0.22685645520687103, 0.17271213233470917, -0.20909766852855682, -0.04485426843166351], [-0.002739038784056902, 0.017087969928979874, 0.04165571182966232, 0.08432818204164505, -0.0021317971404641867, -0.11071056872606277, 0.10663560032844543, -0.24123388528823853, -0.13969764113426208, -0.045249491930007935, -0.11048508435487747, -0.07258208096027374, -0.20254173874855042], [-0.06533987820148468, 0.05619664862751961, -0.19007521867752075, -0.01714949868619442, 0.18713223934173584, -0.03714786469936371, -0.0002705613733269274, -0.016605529934167862, 0.043140511959791183, 0.15163791179656982, 0.25062328577041626, 0.1514209657907486, 0.24849791824817657], [-0.030398139730095863, -0.22434893250465393, -0.14211571216583252, 0.1773509979248047, -0.012907221913337708, -0.14377985894680023, -0.1877724677324295, -0.2347496896982193, -0.23530934751033783, -0.03231695294380188, 0.13986067473888397, 0.1252896636724472, -0.27591070532798767], [0.1482997089624405, -0.19225968420505524, -0.03464183583855629, -0.08792848140001297, -0.02955280803143978, -0.030559750273823738, -0.22407971322536469, -0.2146824449300766, -0.019877444952726364, 0.00015068637731019408, -0.10140799731016159, 0.07998867332935333, -0.22483022511005402], [-0.02356359362602234, 0.23295685648918152, -0.10993988811969757, 0.23784320056438446, 0.09346413612365723, -0.2581053674221039, 0.17903530597686768, -0.03173148259520531, -0.10659244656562805, 0.19700928032398224, -0.21583133935928345, 0.007258290890604258, -0.06204872950911522], [0.19078807532787323, 0.07164883613586426, 0.13055703043937683, 0.1084342673420906, -0.0690833106637001, -0.06508511304855347, -0.20377740263938904, 0.14771948754787445, 0.21335382759571075, 0.16503585875034332, -0.19795694947242737, -0.0027171107940375805, -0.18095262348651886], [-0.15520036220550537, -0.1600785106420517, 0.0961625874042511, -0.14058512449264526, 0.00013831090473104268, 0.0005367405246943235, 0.1751871407032013, -0.20832739770412445, -0.19243836402893066, -0.13636380434036255, 0.20009198784828186, -0.07523653656244278, 0.20915472507476807], [0.10825661569833755, 0.04122850298881531, 0.001613731263205409, -0.05069282278418541, 0.038910627365112305, -0.05792693793773651, -0.007908867672085762, 0.03669607266783714, -0.20897653698921204, -0.12072250247001648, 0.22783522307872772, -0.20030443370342255, -0.015092484652996063], [0.28088170289993286, 0.1064697653055191, 0.01196362730115652, -0.2155614197254181, 0.1401873379945755, -0.1902218461036682, -0.05443694815039635, -0.08930806815624237, -0.034017644822597504, -0.0003123171045444906, 0.23138508200645447, 0.011633754707872868, 0.2236204892396927], [0.16595104336738586, -0.17795108258724213, 0.12384303659200668, -0.17131462693214417, -0.11381931602954865, 0.06999325752258301, 0.08810843527317047, 0.20342950522899628, -0.09242481738328934, 0.00010356309940107167, 0.14627347886562347, -0.24340766668319702, 0.1757696121931076], [-0.2128951996564865, -0.0076380399987101555, -0.05333397537469864, -0.12142553925514221, 0.026477057486772537, 0.21170708537101746, -0.056758202612400055, -0.14051553606987, -0.08573698997497559, -0.25007495284080505, 0.1135442927479744, -0.10859134048223495, -0.16036011278629303], [-0.17326536774635315, 0.15022055804729462, 0.14539140462875366, 0.2106534242630005, 0.08625783026218414, -0.0802493542432785, -0.07420405745506287, 0.09001801162958145, 0.213608056306839, 0.05115318298339844, -0.14515839517116547, -0.10577550530433655, -0.2413603812456131], [0.06686925888061523, -0.1309732347726822, -0.23320262134075165, 0.25431033968925476, -0.1652969866991043, -0.01762472279369831, 0.0551585853099823, -0.0011139136040583253, -0.16650907695293427, -0.19941093027591705, 0.22888071835041046, 0.021565835922956467, 0.23662930727005005], [-0.09769623726606369, 0.07958071678876877, -0.0651324987411499, -0.000859965686686337, -0.1701650768518448, 0.09401152282953262, 0.0887020155787468, -0.00896271038800478, -0.06679405272006989, -0.14626440405845642, 0.18991751968860626, -0.18170927464962006, 0.11593686044216156], [-0.0688413605093956, -0.10920075327157974, 0.02605995535850525, -0.11942951381206512, 0.03980942815542221, 0.030570056289434433, -0.1811733841896057, 0.02254083752632141, 0.09357701241970062, 0.08526722341775894, -0.011898921802639961, -0.20258773863315582, -0.019262053072452545], [0.08853229135274887, -0.07672858238220215, 0.1129109263420105, 0.19308170676231384, -0.12740319967269897, 0.013423417694866657, 0.09014441072940826, 0.0007813925039954484, 0.02715148776769638, 0.011640524491667747, -0.19931533932685852, 0.0008224935154430568, 0.18896161019802094], [0.2572176158428192, 0.16927853226661682, 0.040964674204587936, 0.11815927922725677, -0.13119690120220184, -0.2224980741739273, -0.21370796859264374, 0.27706801891326904, 0.1830369085073471, -0.16697686910629272, 0.11211267858743668, 0.18468528985977173, 0.26293066143989563], [0.23529042303562164, 0.2091071903705597, -0.06637825071811676, -0.07288747280836105, 0.22553887963294983, 0.14868693053722382, -0.1422087848186493, 0.24608486890792847, 0.12726013362407684, 0.1265331506729126, -0.17575275897979736, 0.055270109325647354, -0.0727829858660698], [0.22599080204963684, -0.04296446219086647, 0.11147846281528473, 0.04531165584921837, 0.1254822015762329, -0.10475173592567444, 0.13147218525409698, -0.19397106766700745, 0.07171830534934998, -0.16292206943035126, -0.2656407356262207, -0.19795197248458862, 0.19923724234104156], [0.14167101681232452, 0.25445473194122314, 0.21787551045417786, -0.2228868007659912, -0.19345656037330627, -0.052747949957847595, -0.15540137887001038, 0.18630142509937286, -0.21764245629310608, -0.11070302128791809, -0.27209046483039856, -0.13278938829898834, 0.2033330202102661], [0.21808400750160217, 0.19197218120098114, 0.20877188444137573, 0.24952332675457, -0.07658526301383972, 0.11774050444364548, 0.2469336986541748, 0.08779829740524292, 0.26857733726501465, 0.11920992285013199, 0.16652385890483856, -0.07262584567070007, 0.12855882942676544], [0.009130265563726425, -0.04210418090224266, -0.14495965838432312, -0.13095498085021973, -0.18865035474300385, 0.2022014856338501, 0.2085075080394745, -0.016398243606090546, -0.13581711053848267, 0.18959908187389374, 0.15264832973480225, 1.8340942915529013e-05, -0.1063443198800087], [0.2561274766921997, 0.1131044328212738, -0.19602397084236145, 0.27652156352996826, 0.22337660193443298, -0.09081797301769257, 0.16856080293655396, -0.14432832598686218, -0.037981338798999786, 0.21070986986160278, 0.02521151304244995, -0.17140384018421173, -0.07911984622478485]], "fc1.bias": [-0.05103063955903053, -0.06017778441309929, 0.004504880867898464, 0.26633405685424805, 0.0050442954525351524, -0.16842299699783325, 0.028023459017276764, 0.13372403383255005, 0.12121792882680893, -0.2286767214536667, -0.05803992226719856, -0.21557138860225677, -0.09378590434789658, 0.10330662131309509, -0.19927412271499634, 0.10285399854183197, 0.23789843916893005, 0.021205589175224304, -0.18640956282615662, -0.1050398126244545, 0.061589743942022324, -0.1962069422006607, 0.1336495280265808, -0.22699487209320068, -0.24719077348709106, -0.26569199562072754, -0.058257512748241425, 0.18700464069843292, -0.26665371656417847, 0.22505564987659454, -0.09956804662942886, 0.09526165574789047], "fc2.weight": [[-0.0005401024827733636, -0.146321639418602, 0.12195738404989243, 0.10240442305803299, 0.17459118366241455, 0.09159544110298157, -0.10397866368293762, 0.14264817535877228, 0.020014388486742973, 0.0594877153635025, -0.12289159744977951, -0.0379650741815567, -0.14886574447155, -0.04738578572869301, 0.030854901298880577, -0.138572096824646, 0.058051709085702896, 0.0947909876704216, 0.019637301564216614, -0.09496412426233292, -0.13615572452545166, -0.042123887687921524, 0.07187007367610931, 0.14966312050819397, 0.11178766191005707, -0.026679627597332, 0.05450821295380592, -0.17448382079601288, -0.15532326698303223, 0.07904510200023651, -0.1200665757060051, 0.10324246436357498], [-0.10021159052848816, -0.07461253553628922, -0.12096299231052399, 0.09394776821136475, -0.01897360198199749, 0.13808396458625793, 0.11901699006557465, 0.09290756285190582, 0.015681909397244453, -0.030754486098885536, -0.02032531052827835, 0.029867438599467278, 0.06325437128543854, -0.10236464440822601, 0.14080293476581573, -0.0191669724881649, -0.14629234373569489, -0.09552794694900513, 0.15102678537368774, 0.13691863417625427, -0.16278980672359467, 0.13211004436016083, 0.08274617791175842, 0.0801476389169693, 0.15634217858314514, -0.10154269635677338, 0.048365380614995956, 0.071054607629776, -0.05662448704242706, 0.0556800439953804, -0.07065266370773315, 0.12673230469226837], [-0.02530798129737377, -0.04177505522966385, 0.020933160558342934, 0.03862932324409485, -0.062003061175346375, -0.002465718425810337, 0.0779709666967392, 0.0017122614663094282, 0.029920144006609917, -0.019149193540215492, 0.03790145739912987, -0.10346345603466034, -0.07946383208036423, -0.06533785909414291, 0.1377740353345871, -0.023878924548625946, -0.00010334744729334489, -0.06128869205713272, 0.1517619490623474, 0.14794687926769257, -0.10871238261461258, -0.11866769194602966, -0.10938309878110886, 0.00015878307749517262, -0.02146773412823677, -0.09116430580615997, -0.03932013362646103, 0.010513103567063808, -0.06795205920934677, 0.015865759924054146, -0.017156120389699936, -0.06130058690905571], [0.002681843237951398, 0.13782992959022522, -0.09495484083890915, 0.002312511671334505, -0.04107453674077988, 0.16601316630840302, -0.17094820737838745, -0.14476928114891052, 0.14948463439941406, -0.08731835335493088, 0.02671578712761402, -0.019398361444473267, -0.014055564999580383, -0.04428883269429207, 0.09940242022275925, -0.0008324189693666995, -0.16794098913669586, -0.07987368851900101, -0.03623703494668007, 0.06457067281007767, -0.11858315020799637, 0.15767644345760345, -0.03728866204619408, -0.009016313590109348, 0.13025140762329102, 0.08170409500598907, 0.1252707988023758, 0.09509874880313873, -0.02975144237279892, -0.12217725813388824, 0.002795563545078039, 0.13906869292259216], [-0.03532242029905319, -0.13924866914749146, 0.04824550077319145, 0.1473824679851532, -0.026545075699687004, -0.12172719836235046, -0.13566578924655914, 0.020738553255796432, 0.0028004576452076435, -0.06488126516342163, 0.01265533734112978, 0.04298673942685127, 0.11596159636974335, 0.11262386292219162, -0.004436833318322897, -0.13120459020137787, -0.1350596398115158, 0.14036354422569275, 0.05385841056704521, 0.05278344452381134, -0.1282864362001419, 0.1390097290277481, 0.1427723914384842, 0.13492506742477417, -0.12447100132703781, -0.04256283491849899, -0.09701212495565414, 0.1427057385444641, -0.05169495940208435, -0.056395143270492554, 0.06820162385702133, -0.05745204910635948], [-0.06269556283950806, 0.002511285711079836, 0.0019788029603660107, -0.1130814477801323, 0.12272245436906815, -0.05369515344500542, 0.038633011281490326, 0.1290910840034485, 0.0647636353969574, 0.0032688602805137634, 0.12575341761112213, 0.002275933977216482, -0.057463329285383224, 0.14253531396389008, 0.018390975892543793, -0.14777232706546783, -0.026546506211161613, -0.09585066139698029, 0.13032019138336182, -0.006762902718037367, -0.13645349442958832, 0.002379797864705324, 0.08649548888206482, 0.022298837080597878, 0.0319661982357502, -0.002205668017268181, 0.041779059916734695, -0.01956471987068653, -0.046129874885082245, -0.14054329693317413, -0.1085626482963562, 0.05234557390213013], [-0.08018190413713455, 0.012210944667458534, 0.03248182311654091, -0.00021553767146542668, -0.11359278857707977, 0.1661970168352127, -0.11293947696685791, 0.15004073083400726, -0.12747545540332794, -0.01904165931046009, 0.0769045352935791, -0.07222093641757965, 0.12384647130966187, -0.14305265247821808, -0.14078252017498016, -0.08007751405239105, 0.02648880146443844, 0.1623322069644928, -0.07932651042938232, 0.04035687446594238, -0.04529598727822304, -0.04900193586945534, 0.13528227806091309, -0.11237778514623642, 0.006679162848740816, 0.17238450050354004, -0.016767052933573723, 0.1380239874124527, -0.049441393464803696, 0.1455339640378952, -0.14843221008777618, -0.04395801201462746], [-0.008397718891501427, 0.06994903087615967, 0.045175883919000626, 0.1283051073551178, -0.02732503041625023, -0.004683868959546089, 0.12987510859966278, -0.05279276892542839, 0.13540996611118317, -0.0931473895907402, -0.0010923435911536217, 0.0016176353674381971, 0.054585106670856476, 0.1421884000301361, -0.0353069081902504, -0.14616481959819794, 0.08910637348890305, 0.05264194309711456, 0.06564504653215408, -0.08492141216993332, 0.11429492384195328, 0.1714823842048645, 0.009516380727291107, -0.1404268741607666, 0.13053321838378906, -0.13717584311962128, 0.03297848999500275, 0.024419736117124557, -0.0870288833975792, 0.05794597044587135, -0.17779017984867096, 0.058486368507146835], [-0.08754020184278488, -0.00619894452393055, 0.0015030705835670233, 0.15715888142585754, -0.0852290615439415, 0.11558416485786438, -0.01050969585776329, -0.08878512680530548, -0.13520200550556183, -0.13751071691513062, 0.1889004409313202, -0.03206915408372879, -0.001109556294977665, 0.06939321756362915, 0.1127665638923645, 0.15101028978824615, 0.14508870244026184, -0.1308743953704834, -0.03326329588890076, -0.08227457851171494, -0.10010948032140732, 0.05321281775832176, 0.16015620529651642, -0.11698133498430252, 0.11754780262708664, -0.09836000949144363, -0.04186825454235077, 0.13916993141174316, -0.044640183448791504, 0.012666997499763966, -0.14360113441944122, 0.16864272952079773], [-0.0015869479393586516, -0.10553912818431854, 0.027938934043049812, -0.11142861843109131, -0.11725333333015442, 0.03487318009138107, 0.15144367516040802, -0.05180143564939499, 0.09159822762012482, 0.1272459775209427, 0.1344214379787445, -0.08005329966545105, 0.0007557065691798925, -0.034104812890291214, -0.11971326172351837, -0.00023385316308122128, 0.13992546498775482, 0.16927531361579895, 0.011357712559401989, 0.03539305925369263, -0.05961553379893303, 0.14429935812950134, -0.07936549186706543, -0.0982251837849617, 0.03874453529715538, 0.11784655600786209, -0.13952848315238953, 0.16166390478610992, 0.07186067849397659, -0.12296642363071442, -0.060212526470422745, 0.17213448882102966], [-0.11101172119379044, -0.02918165549635887, 0.034000515937805176, -0.13024938106536865, 0.07246518135070801, 0.07254596054553986, 0.08988498151302338, -0.08817294239997864, 0.1513580083847046, -0.0802958607673645, 0.15225675702095032, -0.1448369026184082, -0.1328277438879013, 0.08830256015062332, 0.002085162326693535, -0.0019665199797600508, -0.07374417036771774, -0.0499122329056263, -0.027866337448358536, -0.14750316739082336, -0.0005394904874265194, 0.013211840763688087, 0.0016830406384542584, 0.03312762826681137, 0.14654651284217834, 0.028112580999732018, -0.04060594365000725, -0.04978995770215988, -0.08857034146785736, -0.09959709644317627, -0.006136181298643351, -0.009705789387226105], [0.05434941127896309, -0.06505005806684494, 0.11629386246204376, -0.10986071079969406, -0.0013719829730689526, 0.15924569964408875, 0.18676060438156128, -0.10562968254089355, 0.008789408020675182, 0.00019363214960321784, -0.06710559129714966, -0.04921418055891991, 0.02418075129389763, -0.1107109859585762, 0.021826226264238358, 0.08681672066450119, -0.068235382437706, 0.14460624754428864, -0.011455101892352104, 0.05578641965985298, 0.17374981939792633, -0.041957538574934006, 0.10136204957962036, -0.02677570842206478, -0.013993199914693832, -0.03679138794541359, -0.009249357506632805, -0.06818396598100662, 0.036666154861450195, 0.004122949205338955, 0.08752943575382233, -0.024678220972418785], [-0.00164630392100662, -0.05286600440740585, -0.12338991463184357, 0.07462925463914871, 0.021558187901973724, -0.06840119510889053, -0.04702310636639595, 0.041332270950078964, -0.015367930755019188, 0.09097602218389511, 0.02709462307393551, 0.0650043934583664, 0.052746545523405075, -0.022003188729286194, 0.06908367574214935, 0.13029582798480988, 0.0097154900431633, 0.034435223788022995, 0.0014193766983225942, 0.09778212010860443, -0.07381046563386917, -0.07971427589654922, 0.07116994261741638, -0.12918466329574585, 0.014190209098160267, -0.08759112656116486, 0.10907752066850662, -0.1656634658575058, 0.10198623687028885, 0.1713479459285736, 0.013808880932629108, 0.006767025217413902], [0.14930200576782227, -0.08505452424287796, 0.0027590268291532993, -0.05398450419306755, -0.024364685639739037, 0.033185090869665146, 0.008297691121697426, -0.030131109058856964, -0.15209084749221802, -0.001264933729544282, -0.018937595188617706, 0.006050159689038992, 0.11083826422691345, 0.1482032984495163, -0.09402120113372803, -0.013825202360749245, -0.0738256573677063, -0.16010890901088715, -0.1205207109451294, 0.14123138785362244, 0.09802508354187012, 0.07219305634498596, 0.09867570549249649, -0.11581353843212128, 0.003099811729043722, 0.15797382593154907, -0.08893558382987976, 0.15360258519649506, 0.04741687700152397, 0.12493760883808136, -0.05134180188179016, 0.05838608741760254], [-0.1320372074842453, 0.00021499639842659235, 0.034964315593242645, 0.029213912785053253, 0.14779604971408844, 0.17583557963371277, 0.13625437021255493, 0.11436261236667633, 0.10077188163995743, -0.001555486349388957, -0.11575315147638321, -0.04150222986936569, 0.00047286643530242145, -0.0737328752875328, 0.08392620086669922, 0.06143822520971298, 0.030758719891309738, 0.04462314397096634, 0.14885391294956207, 0.04019986838102341, -0.15234056115150452, -0.10372535139322281, 0.07156673818826675, 0.0025292637292295694, 0.06184886395931244, -0.17994099855422974, -0.16717898845672607, 0.10677307099103928, 0.10853949189186096, -0.16282173991203308, 0.04504258930683136, -0.11297844350337982], [0.1092623919248581, 0.03154972940683365, 0.15008500218391418, -0.14959180355072021, -0.14547766745090485, 0.0949588492512703, 0.13227272033691406, 0.0837983787059784, 0.0929744616150856, -0.12423942983150482, 0.10336121916770935, -0.1422085016965866, 0.01616867259144783, -0.09125041216611862, -0.04602443054318428, 0.008621917106211185, -0.04532447084784508, -0.005707758013159037, -0.14285726845264435, -0.141983762383461, 0.04431091621518135, -0.05057647451758385, -0.08304382115602493, -0.04556887224316597, -0.11988390982151031, -0.1166810691356659, 0.08128233253955841, 0.06545213609933853, 0.0021103692706674337, -0.07212476432323456, 0.0348171666264534, -0.0004487656697165221], [-0.10175108164548874, 0.025081980973482132, 0.13628040254116058, -0.1806485801935196, -0.17480354011058807, 0.020158426836133003, 0.12064550071954727, -0.10277611017227173, 0.02405712567269802, 0.09969257563352585, 0.03646835684776306, 0.02670612372457981, 0.15166239440441132, 0.09363315999507904, -0.09209299087524414, 0.014969132840633392, 0.08836955577135086, 0.155735045671463, -0.17084643244743347, 0.07417222112417221, -0.05223079025745392, -0.18324615061283112, 0.04479548707604408, -0.0718005895614624, 0.013189941644668579, -0.10774588584899902, -0.1255207061767578, -0.013997765257954597, -0.0545848086476326, 0.1067165806889534, 0.037383560091257095, 0.11903542280197144], [0.010267529636621475, -0.03289109468460083, 0.09517566114664078, -0.0016604071715846658, 0.010313895530998707, -0.03290167823433876, -3.868624480674043e-05, -0.011052126064896584, 0.0026171491481363773, -0.11324024200439453, -5.431767931440845e-05, -0.12208343297243118, -0.014794849790632725, 0.07797281444072723, -0.09834801405668259, -0.09459791332483292, -0.01965319737792015, -0.02474060282111168, 0.007403167430311441, 0.00689683249220252, 0.06525121629238129, -0.09720876067876816, 0.0027334156911820173, 0.07441367208957672, 0.12824244797229767, 0.0027804577257484198, -0.07781004905700684, 0.027021417394280434, 0.07620331645011902, -0.08592143654823303, -0.07810412347316742, 0.05384845659136772], [0.00271973991766572, -0.15369494259357452, -0.07745238393545151, 0.07730225473642349, -0.060855064541101456, 0.12415354698896408, 0.14929768443107605, 0.02082546427845955, 0.0003367150202393532, -0.03217722475528717, 0.008700541220605373, 0.03818490356206894, -0.11041542142629623, -0.0207925196737051, -0.15394042432308197, 0.10848362743854523, -0.11075969785451889, 0.16117940843105316, -0.050458937883377075, -0.0775715559720993, 0.08559529483318329, 0.037301674485206604, 0.11651840060949326, 0.0495619922876358, -0.15532872080802917, 0.10452122241258621, -0.04065738245844841, -0.07926315814256668, 0.10713302344083786, 0.1254187524318695, -0.17509128153324127, 0.0026636337861418724], [0.1205253079533577, 0.08113109320402145, 0.12427432835102081, -0.04622626304626465, -0.09837812185287476, 0.15423546731472015, 0.08475762605667114, 0.16479691863059998, -0.05646885186433792, -0.08896822482347488, -0.0029215302783995867, -0.14884182810783386, 0.04511449113488197, 0.15170881152153015, 0.03513973578810692, -0.017309796065092087, 0.08931988477706909, -0.1121116504073143, 0.1677195131778717, -0.15173405408859253, -0.16841240227222443, -0.02949409931898117, 0.13859158754348755, -0.0016594198532402515, 0.07846430689096451, -0.13606391847133636, 0.056983668357133865, -0.020882239565253258, 0.06598810851573944, 0.12139230966567993, 0.05471756309270859, 0.003592145862057805], [0.0022917541209608316, -0.0863490030169487, -0.039846450090408325, 0.09033580124378204, -0.04668722301721573, 0.0852687880396843, -0.045908745378255844, -0.017756199464201927, 0.00030753668397665024, -0.1375366598367691, -6.244951509870589e-05, 0.0016020898474380374, 0.0023892237804830074, -0.012291468679904938, 0.11473802477121353, 0.10585814714431763, -0.09525025635957718, 0.05779075622558594, -0.11403395980596542, -0.12583526968955994, 0.030152244493365288, -0.00048341701040044427, -0.05813738331198692, -0.1458001583814621, -0.04427136853337288, 0.035041920840740204, -0.13893663883209229, -0.14702853560447693, 0.0012753841001540422, -0.10276059806346893, -0.1302015632390976, -0.04394915699958801], [-0.006128726992756128, -0.1359560638666153, -0.09348458796739578, -0.0025395925622433424, -0.14200112223625183, -0.0031241504475474358, -0.08960802108049393, -0.0979759469628334, 0.0452984981238842, -0.11144433915615082, -0.10935516655445099, 0.07634463161230087, 0.010197448544204235, 0.13631018996238708, -0.02357407473027706, -0.06102925166487694, 0.0022267955355346203, -0.00013834572746418417, 0.11020278185606003, -0.15137194097042084, 0.002748641883954406, 0.053910356014966965, -0.07290159910917282, -0.06543437391519547, 0.06107354536652565, -0.144685298204422, 0.018437234684824944, -0.1122368648648262, 0.06349149346351624, -0.12649108469486237, 0.08417209982872009, -0.14264704287052155], [-0.12393882870674133, -0.0004830349062103778, 0.11466948688030243, -0.1267300695180893, -0.05455881729722023, 0.13058999180793762, -0.007156618405133486, 0.04900587722659111, -0.14535805583000183, -0.03166883438825607, -0.06538024544715881, 0.12437867373228073, 0.049137718975543976, -0.1043938472867012, 0.006163140293210745, 0.0002084073785226792, -0.04840981960296631, -0.07648435235023499, -0.03466793894767761, 0.1147114560008049, -0.10213498026132584, -0.10134077072143555, -0.03064095787703991, -0.0002835121122188866, 0.024412455037236214, 0.0010028965771198273, -0.019071489572525024, -0.08268518000841141, -0.008995811454951763, -0.04695875570178032, 0.11818446218967438, -0.1473715901374817], [-0.08822782337665558, -0.11918254941701889, -0.009524218738079071, 0.11313343048095703, 0.13028253614902496, -0.12922720611095428, 0.00023328483803197742, 0.07927704602479935, 0.05363846570253372, 0.12015458941459656, -0.0009713946492411196, -0.09421778470277786, 0.09239371120929718, -0.03658612072467804, 0.06712648272514343, -0.020034708082675934, 0.050893671810626984, 0.1343192756175995, 0.1396871656179428, -0.13619595766067505, -0.09238488972187042, -0.04886311665177345, -0.08820003271102905, 0.1449173241853714, 0.0024697454646229744, -0.09271233528852463, -0.05437160283327103, -0.07319696247577667, 0.04790712520480156, -0.1295262724161148, -0.14013656973838806, -0.14955109357833862], [0.05184246599674225, 0.06303434073925018, -0.08527570217847824, 0.02029528096318245, 0.10589294135570526, 0.003800072707235813, -0.01420812401920557, -0.002791347913444042, 0.0010007275268435478, 0.06462028622627258, -0.09547106921672821, 0.06525227427482605, 0.07517476379871368, -0.08260154724121094, 0.11970673501491547, 0.1489199995994568, -0.04550725594162941, -0.025759443640708923, 0.0637182742357254, -0.11386434733867645, 0.04572152718901634, 0.017824269831180573, 0.08690308779478073, -0.12888354063034058, -0.12221405655145645, 0.05509578064084053, 0.03958738595247269, -0.13984781503677368, -0.07412699609994888, -0.1370626986026764, -0.10205933451652527, -0.055458053946495056], [0.12164167314767838, -0.02877078391611576, 0.07705981284379959, 0.16914260387420654, 0.07748778164386749, -0.1594473272562027, 0.09960808604955673, 0.06323590874671936, 0.12648633122444153, -0.14966976642608643, 0.1185503751039505, 0.14175835251808167, -0.13977696001529694, 0.030228806659579277, 0.14334876835346222, -0.12240713834762573, 0.057123009115457535, 0.07458849996328354, 0.04499325156211853, 0.15122605860233307, 0.14230135083198547, 0.1605163961648941, -0.014984365552663803, 0.12361187487840652, -0.1508019119501114, -0.1019035056233406, -0.046000074595212936, -0.05522489175200462, 0.15818168222904205, 0.0797981545329094, 0.08927551656961441, 0.13122813403606415], [-0.10744674503803253, -0.03312272951006889, 0.003904360346496105, 0.03501420095562935, 0.09175072610378265, -0.07257810235023499, -0.06292258203029633, 0.15269531309604645, -0.05711950734257698, -0.09822317957878113, 0.1019950658082962, 0.1071864441037178, -0.031511180102825165, -0.05660472437739372, -0.12299332022666931, -0.14790235459804535, 0.06458231806755066, -0.07555325329303741, 0.14555896818637848, -0.11988583207130432, -0.025178899988532066, -0.005932409316301346, 0.09643356502056122, 0.11843165010213852, 0.10914043337106705, 0.08492299169301987, -0.07362215965986252, -0.1251354068517685, -0.15321467816829681, 0.012221290729939938, 0.19157646596431732, -0.051220621913671494], [6.927541107870638e-05, -0.11388424038887024, 0.030380910262465477, 0.10840102285146713, -0.14968827366828918, -0.11040613800287247, 0.13964244723320007, 0.03567999228835106, 0.00234480039216578, 0.008888979442417622, -0.013531168922781944, -0.10308071970939636, -0.14049415290355682, 0.13791482150554657, -0.007037562318146229, -0.06913445144891739, -0.04628951847553253, -0.07197782397270203, -0.06291163712739944, -0.12708602845668793, 0.13856598734855652, 0.08115486800670624, -0.09541486948728561, -0.036308594048023224, 0.0880715399980545, -0.05175727605819702, 0.022960806265473366, 0.0476849228143692, -0.08675593137741089, 0.04031338542699814, -0.011678913608193398, 0.1693873256444931], [-0.03986695036292076, -0.05836042761802673, 0.12764796614646912, -0.15299980342388153, 0.01365076843649149, 0.1677660495042801, -0.09075907617807388, 0.1742325872182846, 0.13923335075378418, 0.13977253437042236, -0.03453538939356804, 0.1455007642507553, -0.052750565111637115, -0.08200635015964508, 0.07409414649009705, 0.03702673316001892, 0.09551114588975906, 0.16784252226352692, -0.10567613691091537, 0.07305947691202164, 0.05819562077522278, 0.08087274432182312, 0.0893782302737236, -0.04199672490358353, -0.15043029189109802, 0.14819322526454926, -0.09329936653375626, 0.11399586498737335, -0.16347692906856537, -0.027226610109210014, 0.024053651839494705, 0.011875003576278687], [-0.0027446707244962454, 0.060955438762903214, 0.0005726137314923108, 0.019856086000800133, 0.17058412730693817, -0.1062430664896965, 0.005147598683834076, -0.0631604716181755, 0.13065412640571594, 0.1266673505306244, 0.012941846624016762, -0.037230703979730606, -0.08471056818962097, 0.11210334300994873, -0.016789186745882034, 0.168251171708107, 0.10519170016050339, 0.15244370698928833, 0.13217104971408844, -0.09033811092376709, 0.05339951813220978, -0.049071215093135834, 0.0775301605463028, 0.002385132247582078, -0.0025527139659971, -0.11019721627235413, -0.15255439281463623, 0.06874620169401169, 0.03273550048470497, 0.01784580945968628, 0.09613260626792908, -0.04882572591304779], [0.03867918252944946, -0.07291542738676071, 0.013486345298588276, -0.01698599010705948, 0.09922437369823456, 0.12991982698440552, 0.1288689225912094, -0.00045672699343413115, 0.07975638657808304, -0.1519116312265396, -0.07921167463064194, 0.008883429691195488, -5.931595660513267e-05, -0.1141556054353714, -0.053955744951963425, -0.05823328346014023, -0.1504335254430771, -0.0020337870810180902, 0.095943383872509, 0.0475362092256546, -0.05964825674891472, -0.13764247298240662, -0.11798140406608582, -0.00012303443509154022, 0.09703844040632248, -0.047380778938531876, -0.07175341248512268, -0.06987674534320831, 0.0025527672842144966, -0.1431802213191986, -0.13132408261299133, 0.1493092030286789], [-0.05996062234044075, -0.009143505245447159, -0.023617910221219063, -0.13062945008277893, -0.008499572053551674, 0.030227111652493477, -0.04757006838917732, 0.00013858848251402378, 0.00016094432794488966, -0.15127047896385193, 0.10387255996465683, 0.11815691739320755, 0.0959630161523819, -0.034072812646627426, 0.06796475499868393, -0.14093390107154846, -0.020195243880152702, -0.012860285118222237, -0.0383613221347332, 0.05000384896993637, -0.056238219141960144, 6.488244980573654e-05, -0.02724275179207325, -0.14131508767604828, -0.006762094795703888, -0.1251572072505951, 0.07859816402196884, 0.07005343586206436, 0.14091089367866516, -0.03535410389304161, -0.0012219087220728397, 0.011638205498456955]], "fc2.bias": [0.17465105652809143, 0.16011904180049896, -0.06708323210477829, -0.15421736240386963, -0.13464777171611786, -0.06077422946691513, 0.15012814104557037, 0.05744871869683266, 0.1687859445810318, 0.13133569061756134, 0.0017726931255310774, -0.10940208286046982, 0.17066949605941772, 0.1401749700307846, 0.07465532422065735, -0.07212542742490768, 0.14089646935462952, -0.0023213864769786596, 0.11501780152320862, 0.07198213040828705, 0.06944702565670013, -0.13044773042201996, -0.07356872409582138, 0.08152836561203003, -0.01367318257689476, -0.15548035502433777, 0.16245049238204956, -0.007042075973004103, 0.14424875378608704, -0.12977184355258942, 0.03682519868016243, -0.042448919266462326], "fc3.weight": [[-0.07019420713186264, -0.03240969404578209, -0.04131418466567993, 0.08292371779680252, -0.010685114189982414, 0.1094227209687233, 0.042835649102926254, -0.02997107245028019, -0.1023898646235466, -0.1656937301158905, -0.02913055010139942, -0.16210757195949554, -0.02876480482518673, 0.0037409730721265078, -0.010335252620279789, -0.06246674433350563, 0.12032615393400192, 0.07509683072566986, -0.04113892838358879, -0.06654243171215057, 0.08661463856697083, 0.12913356721401215, -0.13717910647392273, -0.014948612079024315, 0.002210288541391492, -0.05727798119187355, 0.156083345413208, -0.03904056176543236, 0.15150047838687897, -0.013567017391324043, 0.0008746852399781346, -0.0786328986287117]], "fc3.bias": [-0.0570792555809021]}}