{"input_dim": 13, "hidden_dim": 32, "feature_names": ["semantic_sim", "lexical_sim_bm25", "cross_substrate_agreement", "recency_baseline", "source_type", "max_substrate_score", "singleton_raw_turn_hit", "entity_overlap", "claim_graph_relevance", "supersede_edge_count", "validity_interval_freshness", "contradiction_count", "time_volatility"], "state_dict": {"fc1.weight": [[-0.024524416774511337, 0.1261151283979416, -0.2506382167339325, -0.15575911104679108, -0.1291513741016388, 0.051836833357810974, -0.00022739704581908882, 0.1968420147895813, -0.04703881964087486, 0.028861116617918015, -0.10616987943649292, -0.01259632408618927, -0.2162056267261505], [-0.1936672180891037, -0.11339055001735687, -0.00946627464145422, 0.06298705190420151, 0.14302082359790802, -0.19893285632133484, -0.07375681400299072, 0.09834461659193039, 0.2187807410955429, -0.05773264914751053, 0.18411380052566528, -0.0053032757714390755, -0.0017633537063375115], [0.20244735479354858, -0.2085690051317215, -0.12655970454216003, -0.02600475773215294, -0.06150828301906586, 0.19101251661777496, -0.131667360663414, -0.08046777546405792, -0.1455114781856537, -0.2110217809677124, -0.11403075605630875, 0.18979908525943756, 0.07665615528821945], [0.08705675601959229, 0.0007847327506169677, -0.09201425313949585, 0.006836165674030781, -0.2102310210466385, -0.14968883991241455, -0.09279505908489227, 0.14169028401374817, 0.11473597586154938, -0.07592159509658813, -2.897884405683726e-05, 0.12930530309677124, 0.22691069543361664], [0.11302198469638824, 0.038196444511413574, 0.18392717838287354, -0.11541406065225601, 0.04630472883582115, -0.21180005371570587, -0.1690070778131485, -0.13983182609081268, 0.1285112500190735, 0.09459532797336578, -0.1693611741065979, 0.038419969379901886, 0.10454080998897552], [-0.026354430243372917, 0.019412830471992493, 0.08370382338762283, 0.12405113875865936, 0.2891794741153717, -0.20401078462600708, -0.05529775470495224, 0.11599348485469818, 0.23868563771247864, 0.24887335300445557, 0.2676086723804474, 0.013142026029527187, -0.19255107641220093], [0.042589280754327774, -0.12765978276729584, -0.2127249538898468, 0.1977640986442566, 0.24552637338638306, -0.22924329340457916, 0.010544586926698685, -0.003992567304521799, -0.015572182834148407, -0.07977157831192017, 0.14209893345832825, -0.11637111008167267, 0.055330004543066025], [0.15896236896514893, 0.23007531464099884, 0.10750646144151688, -0.22569657862186432, -0.18565261363983154, 0.16561821103096008, 0.06523734331130981, -0.18391425907611847, -0.1415516585111618, 0.2306692898273468, 0.18090613186359406, -0.07390826940536499, -0.025637976825237274], [-0.21404485404491425, 0.008540372364223003, -0.19324304163455963, -0.16549943387508392, -0.0028666798025369644, 0.04557071998715401, -0.06678742915391922, 0.12751582264900208, -0.12213125824928284, 0.20296964049339294, 0.19921588897705078, -0.18530328571796417, -0.024945959448814392], [0.0007707355543971062, 0.0026383523363620043, 0.022079449146986008, 0.06221020966768265, 0.00033048965269699693, -0.08793965727090836, 0.08394564688205719, -0.2172820121049881, -0.11648132652044296, -0.025302885100245476, -0.08771850168704987, -0.050894442945718765, -0.17878545820713043], [-0.042268846184015274, 0.0807090476155281, -0.16369014978408813, -0.000822759116999805, 0.21658851206302643, -0.011732157319784164, -0.00045481103006750345, -0.004681778140366077, 0.07253587245941162, 0.1475767344236374, 0.2806839644908905, 0.1280711442232132, 0.21456791460514069], [0.0008231945685110986, -0.2004743069410324, -0.0841861441731453, 0.1406429260969162, 8.398445061175153e-05, -0.09041339159011841, -0.16411153972148895, -0.21082623302936554, -0.18550311028957367, -0.014001751318573952, 0.10438646376132965, 0.10227017849683762, -0.21871235966682434], [0.12498345226049423, -0.16856826841831207, -0.01596304588019848, -0.06569994240999222, -0.011725238524377346, -0.01254691369831562, -0.20020639896392822, -0.19085733592510223, -0.004443034995347261, -0.00016978559142444283, -0.07883087545633316, 0.058016154915094376, -0.20095323026180267], [-0.03490960970520973, 0.22792182862758636, -0.1314573436975479, 0.2017652988433838, 0.08213693648576736, -0.26700079441070557, 0.177962526679039, -0.04750401899218559, -0.1395093947649002, 0.18722158670425415, -0.2408457100391388, -0.0016938148764893413, -0.015492134727537632], [0.18650071322917938, 0.056134868413209915, 0.1286519169807434, 0.051772769540548325, -0.07110238075256348, -0.06933779269456863, -0.1800137609243393, 0.1322399228811264, 0.20924502611160278, 0.2058292180299759, -0.19996428489685059, 0.0007470829878002405, -0.1472398340702057], [-0.1371285766363144, -0.16200591623783112, 0.12317000329494476, -0.11735793948173523, 0.029928777366876602, 0.009544077329337597, 0.17020682990550995, -0.2131885290145874, -0.17379230260849, -0.11400529742240906, 0.23002690076828003, -0.053440921008586884, 0.18535999953746796], [0.11273591965436935, 0.049965303391218185, 0.012969864532351494, -0.012844497337937355, 0.05636843666434288, -0.058469466865062714, -0.012790517881512642, 0.045662276446819305, -0.20424619317054749, -0.15115025639533997, 0.24536243081092834, -0.17656171321868896, 0.0007762077730149031], [0.2780683934688568, 0.11147378385066986, 0.004122961312532425, -0.19173170626163483, 0.12794752418994904, -0.19356395304203033, -0.0337352491915226, -0.0837775468826294, -0.0368143767118454, -0.01707407832145691, 0.21918560564517975, -0.0002618380531203002, 0.1997494399547577], [0.18670091032981873, -0.18261690437793732, 0.151088148355484, -0.1477787047624588, -0.08243733644485474, 0.07818379998207092, 0.08295657485723495, 0.20457328855991364, -0.07115869224071503, 0.023093581199645996, 0.17781086266040802, -0.21944664418697357, 0.15219761431217194], [-0.183344766497612, -0.007952866144478321, -0.05996120348572731, -0.09846639633178711, 0.02251371555030346, 0.19395720958709717, -0.03589945659041405, -0.11731433868408203, -0.08000734448432922, -0.22608669102191925, 0.10926278680562973, -0.08586180955171585, -0.13692115247249603], [-0.16424478590488434, 0.17388291656970978, 0.1310453712940216, 0.16444438695907593, 0.06615539640188217, -0.07759217917919159, -0.069420725107193, 0.09862489253282547, 0.22269926965236664, 0.050606537610292435, -0.16558359563350677, -0.08310339599847794, -0.21347948908805847], [0.01704118773341179, -0.1078711524605751, -0.19861426949501038, 0.1945616453886032, -0.13200490176677704, 0.0012924914481118321, 0.03440681844949722, -0.0003489047521725297, -0.13844133913516998, -0.17567375302314758, 0.17257939279079437, 0.005613517481833696, 0.1815406084060669], [-0.08919098228216171, 0.08683691918849945, -0.06034476310014725, -0.0007407980156131089, -0.17039845883846283, 0.10300104320049286, 0.09512007981538773, 0.0010273258667439222, -0.05833329260349274, -0.12297078222036362, 0.18992416560649872, -0.15809187293052673, 0.06682367622852325], [-0.04731868952512741, -0.08645917475223541, 0.00895368866622448, -0.09650302678346634, 0.020444612950086594, 0.012555371969938278, -0.15755990147590637, 0.00631242198869586, 0.0711909756064415, 0.06311957538127899, 0.00014525119331665337, -0.17883116006851196, -0.004030155949294567], [0.0502280667424202, -0.054875265806913376, 0.058783382177352905, 0.13654327392578125, -0.0972360372543335, 3.556459705578163e-05, 0.06785190850496292, -0.0013253242941573262, -0.0016556269256398082, -0.00025889676180668175, -0.16956964135169983, -0.0013407536316663027, 0.14381720125675201], [0.27261021733283997, 0.19234460592269897, 0.05225617066025734, 0.08227454125881195, -0.12050627917051315, -0.20745998620986938, -0.18988816440105438, 0.30455243587493896, 0.19812564551830292, -0.21223504841327667, 0.12285076826810837, 0.16104619204998016, 0.22842401266098022], [0.22828464210033417, 0.19284288585186005, -0.0726805031299591, -0.051187027245759964, 0.2197272628545761, 0.14166662096977234, -0.1189621314406395, 0.22837409377098083, 0.12026802450418472, 0.16285860538482666, -0.18155190348625183, 0.034510720521211624, -0.05108693242073059], [0.24003303050994873, -0.02720668353140354, 0.13373003900051117, 0.008535126224160194, 0.15214088559150696, -0.08271326869726181, 0.12769491970539093, -0.17505726218223572, 0.08606774359941483, -0.19265371561050415, -0.23933544754981995, -0.17422382533550262, 0.1704840362071991], [0.12524332106113434, 0.23181578516960144, 0.20302952826023102, -0.1990193873643875, -0.20793063938617706, -0.06921759992837906, -0.13201065361499786, 0.16370698809623718, -0.2338910549879074, -0.11135557293891907, -0.28657692670822144, -0.10966237634420395, 0.1795720010995865], [0.20516984164714813, 0.18027473986148834, 0.18854588270187378, 0.1979554295539856, -0.10257095098495483, 0.10842376947402954, 0.2567410171031952, 0.07555954903364182, 0.2553829252719879, 0.146602600812912, 0.14075186848640442, -0.050936371088027954, 0.08574365824460983], [-0.0012051097583025694, -0.022478856146335602, -0.13529334962368011, -0.10785315930843353, -0.1649833470582962, 0.2108265906572342, 0.21809101104736328, -0.017053091898560524, -0.11264985799789429, 0.16592559218406677, 0.12928564846515656, -0.0010011675767600536, -0.08366040140390396], [0.2308005541563034, 0.08863428235054016, -0.22057242691516876, 0.2166842371225357, 0.19667378067970276, -0.1193944439291954, 0.18210665881633759, -0.18179620802402496, -0.06708632409572601, 0.22754359245300293, -0.0021544352639466524, -0.14786718785762787, -0.046788230538368225]], "fc1.bias": [-0.09764466434717178, -0.07671627402305603, -0.0019874616991728544, 0.23640942573547363, 0.009482784196734428, -0.14802561700344086, 0.05036427825689316, 0.13499388098716736, 0.14754648506641388, -0.20478121936321259, -0.03126685321331024, -0.15773999691009521, -0.0713944137096405, 0.08086451888084412, -0.20128145813941956, 0.12360706180334091, 0.24925297498703003, 0.008914386853575706, -0.1688399314880371, -0.11061374843120575, 0.05082681402564049, -0.16301287710666656, 0.13981688022613525, -0.20310740172863007, -0.2178461253643036, -0.25502753257751465, -0.06406030058860779, 0.20640726387500763, -0.28113922476768494, 0.20752395689487457, -0.08991238474845886, 0.09337221086025238], "fc2.weight": [[-0.011694804765284061, -0.11737721413373947, 0.09898974001407623, 0.06138512119650841, 0.16563311219215393, 0.0881233662366867, -0.06737158447504044, 0.12416768819093704, 0.04731270298361778, 0.03845813125371933, -0.1660292148590088, -0.0097254179418087, -0.12554331123828888, -0.093426913022995, 0.013621911406517029, -0.11451318860054016, 0.04871557280421257, 0.07950307428836823, 0.05872531980276108, -0.08932416141033173, -0.15755634009838104, -0.012613222002983093, 0.04898799955844879, 0.12633202970027924, 0.055308569222688675, -0.04888096824288368, 0.03589509800076485, -0.17024536430835724, -0.1775275468826294, 0.0634021982550621, -0.12809674441814423, 0.06307117640972137], [-0.12991513311862946, -0.0439477376639843, -0.0980113223195076, 0.05630163475871086, -0.01507128868252039, 0.14876161515712738, 0.11317266523838043, 0.08729071170091629, 0.04450066760182381, -0.012706871144473553, -0.03705532103776932, -0.001716137514449656, 0.042010579258203506, -0.13484933972358704, 0.13128985464572906, 0.005692657548934221, -0.1370951384305954, -0.09434830397367477, 0.19104567170143127, 0.12194488942623138, -0.17042995989322662, 0.07755280286073685, 0.06638405472040176, 0.05816954746842384, 0.10197529196739197, -0.11611030250787735, 0.03759843111038208, 0.07933840155601501, -0.07174655050039291, 0.052554234862327576, -0.07908964157104492, 0.10112103819847107], [-0.008375164121389389, -0.02218564599752426, 0.005168736446648836, 0.019408196210861206, -0.04082787036895752, 0.0005943495780229568, 0.056071143597364426, -1.9577666535042226e-05, 0.012023917399346828, -0.003955287393182516, 0.018772533163428307, -0.08084071427583694, -0.0575098879635334, -0.04398507624864578, 0.11458171904087067, -0.007296150550246239, 3.034512701560743e-05, -0.04015377536416054, 0.12840856611728668, 0.1246345043182373, -0.08598044514656067, -0.09575390815734863, -0.08663792163133621, 4.021511631435715e-05, -0.005544089246541262, -0.06884332746267319, -0.020014047622680664, -0.0007208615425042808, -0.046471014618873596, 0.0019073811126872897, -0.002680265810340643, -0.0401649996638298], [-0.0018384750001132488, 0.09776315093040466, -0.07253307849168777, -0.0004525718104559928, -0.021563153713941574, 0.12544362246990204, -0.11976662278175354, -0.12149271368980408, 0.12615551054477692, -0.06510797142982483, -0.0005432128673419356, -0.0006741324905306101, -0.0009042735327966511, -0.002079474274069071, 0.06557749211788177, -0.000424659694544971, -0.12410128861665726, -0.057905230671167374, -0.017329979687929153, 0.04325728490948677, -0.06757542490959167, 0.11874785274267197, -0.0020188787020742893, 0.0012406101450324059, 0.0910583883523941, 0.043156106024980545, 0.10225160419940948, 0.05588643252849579, -0.011886591091752052, -0.0703718513250351, -0.0008387243142351508, 0.0986962839961052], [-0.01654425822198391, -0.11603789776563644, 0.0280257910490036, 0.12407632917165756, -0.009330585598945618, -0.09876321256160736, -0.11250053346157074, 0.00503337848931551, -0.000848896917887032, -0.043551817536354065, 0.00020297312585171312, 0.023267334327101707, 0.09309432655572891, 0.0898168608546257, 0.00198726705275476, -0.1080993115901947, -0.11190230399370193, 0.11713910847902298, 0.03319767862558365, 0.03220091015100479, -0.10522253066301346, 0.11580196768045425, 0.11951903998851776, 0.11176951229572296, -0.10146400332450867, -0.022888224571943283, -0.0745387077331543, 0.11945315450429916, -0.031194448471069336, -0.03556021675467491, 0.04670879617333412, -0.03654853254556656], [-0.0414821021258831, -0.000631186063401401, -0.0002142559678759426, -0.09026596695184708, 0.09974267333745956, -0.033046118915081024, 0.01941142976284027, 0.10601559281349182, 0.043440259993076324, -0.0019202922703698277, 0.10272692143917084, -0.0017617265693843365, -0.0365590900182724, 0.11928478628396988, 0.003459457540884614, -0.12446189671754837, -0.009331694804131985, -0.0734061524271965, 0.10722726583480835, 0.0017868848517537117, -0.11327805370092392, -0.00042579369619488716, 0.06430992484092712, 0.006137484684586525, 0.013709340244531631, 0.00038773135747760534, 0.022189218550920486, -0.004232249688357115, -0.02609991282224655, -0.11731665581464767, -0.08583369851112366, 0.03179566562175751], [-0.083603635430336, -0.019353682175278664, 0.014139523729681969, -0.011153152212500572, -0.10367465764284134, 0.16957901418209076, -0.11232728511095047, 0.17065314948558807, -0.17546336352825165, -0.0038842037320137024, 0.12182889878749847, -0.027810994535684586, 0.10084910690784454, -0.09526669234037399, -0.12127071619033813, -0.1052972748875618, 0.036337900906801224, 0.1795426905155182, -0.11998607963323593, 0.03633790463209152, -0.021685343235731125, -0.001460535917431116, 0.1603396236896515, -0.08957533538341522, -0.00038830278208479285, 0.1976255625486374, 0.004407984670251608, 0.13382607698440552, -0.025251373648643494, 0.16292794048786163, -0.13877981901168823, -0.0017849693540483713], [-0.04784213751554489, 0.10014265775680542, 0.02523636445403099, 0.09455802291631699, -0.03279630467295647, -0.004422360565513372, 0.11534900963306427, -0.06702092289924622, 0.1771964430809021, -0.07077272981405258, -0.03752591833472252, 0.0001544323458801955, 0.03387303650379181, 0.10004866123199463, -0.049339406192302704, -0.12140639871358871, 0.08429326117038727, 0.04189335182309151, 0.10560106486082077, -0.07100065052509308, 0.09729026257991791, 0.1194862425327301, -0.009982618503272533, -0.11720164120197296, 0.07698371261358261, -0.15592028200626373, 0.018059037625789642, 0.03057018667459488, -0.10575120896100998, 0.045941177755594254, -0.18208026885986328, 0.021802475675940514], [-0.08496075868606567, 0.024615345522761345, -0.0015673813177272677, 0.11582071334123611, -0.07625958323478699, 0.1308412104845047, 0.02089129574596882, -0.08934877812862396, -0.11212993413209915, -0.1143217608332634, 0.19037866592407227, -0.004892921075224876, -0.0003503676562104374, 0.049653198570013046, 0.10365958511829376, 0.17588546872138977, 0.15910060703754425, -0.12391586601734161, 0.0068915425799787045, -0.08059101551771164, -0.10269729048013687, 0.0035166749730706215, 0.15326471626758575, -0.09409628063440323, 0.06042584404349327, -0.11348429322242737, -0.052561841905117035, 0.15054957568645477, -0.060894839465618134, 0.014819839969277382, -0.152130126953125, 0.15351763367652893], [0.006883138790726662, -0.08136121928691864, 0.010428492911159992, -0.0768737867474556, -0.11202089488506317, 0.04595299810171127, 0.16315020620822906, -0.044524144381284714, 0.12240254133939743, 0.10419728606939316, 0.14361704885959625, -0.04681720584630966, 0.0005956634413450956, -0.04870268702507019, -0.1409047245979309, 0.022233780473470688, 0.15831713378429413, 0.1760614514350891, 0.04823765158653259, 0.04467777535319328, -0.05998316407203674, 0.08609374612569809, -0.08410102874040604, -0.07572229206562042, -0.0019740236457437277, 0.09991203248500824, -0.1585659682750702, 0.17111091315746307, 0.05611293762922287, -0.11474946141242981, -0.0673610270023346, 0.17990335822105408], [-0.0882350504398346, -0.010355747304856777, 0.015418182127177715, -0.1071111336350441, 0.05078247934579849, 0.04614623636007309, 0.06297897547483444, -0.06593720614910126, 0.12800884246826172, -0.05831257998943329, 0.12841732800006866, -0.12167216837406158, -0.10970018804073334, 0.06195554509758949, -0.00028405277407728136, 9.981580660678446e-05, -0.051718372851610184, -0.029552696272730827, -0.010370787233114243, -0.12419568002223969, -0.00025344511959701777, -0.0013674431247636676, -2.223184310423676e-05, 0.014681193046271801, 0.11978193372488022, 0.006892015226185322, -0.021147986873984337, -0.028283966705203056, -0.06632296741008759, -0.07547587901353836, 0.00188067730050534, 0.0013671417254954576], [0.06707771122455597, -0.05240088701248169, 0.09342076629400253, -0.07693047821521759, -0.005075505934655666, 0.155151829123497, 0.1277267336845398, -0.11164719611406326, -0.0013091906439512968, -0.0010820886818692088, -0.09467572718858719, -0.018018217757344246, 0.007521705236285925, -0.1345323622226715, 0.018079228699207306, 0.10620785504579544, -0.07500452548265457, 0.13861249387264252, 0.010708589106798172, 0.034848880022764206, 0.16608525812625885, -0.012211357243359089, 0.08491677045822144, -0.009510738775134087, 0.0019723025616258383, -0.04214705899357796, -0.012749580666422844, -0.06329002231359482, 0.029726102948188782, -0.0015349056338891387, 0.06531275808811188, -0.04719514772295952], [-0.0007418594905175269, -0.02708057314157486, -0.10039965808391571, 0.03436873108148575, 0.013553027994930744, -0.07216107845306396, -0.01124428492039442, 0.025178812444210052, 0.0033661355264484882, 0.06866025179624557, -0.012439874932169914, 0.022952508181333542, 0.0321667417883873, -0.06586415320634842, 0.05465156212449074, 0.15253576636314392, 0.0009455371182411909, 0.02090630866587162, 0.03815560042858124, 0.08554163575172424, -0.09280333667993546, -0.0479905903339386, 0.05075526982545853, -0.10610782355070114, -1.1968371836701408e-05, -0.10730383545160294, 0.09341828525066376, -0.16134653985500336, 0.0834290087223053, 0.15759426355361938, 0.006749490275979042, -0.031727384775877], [0.19602784514427185, -0.12786754965782166, -0.0008283183560706675, -0.04087337851524353, -0.011200467124581337, 0.03693535178899765, -0.02521912008523941, -0.00319569930434227, -0.16088882088661194, -0.00029275030829012394, 0.02336360700428486, -0.001987383235245943, 0.08806490898132324, 0.20226676762104034, -0.0699428915977478, -0.03980548307299614, -0.0625733956694603, -0.14173011481761932, -0.16610828042030334, 0.11861477047204971, 0.1310281902551651, 0.048926468938589096, 0.1328016221523285, -0.09294885396957397, -0.000315091892844066, 0.20182371139526367, -0.06260479986667633, 0.15255196392536163, 0.08289834856987, 0.14903299510478973, -0.03827425092458725, 0.10966556519269943], [-0.10892041772603989, 0.039394523948431015, 0.016238072887063026, 0.023414410650730133, 0.1734345406293869, 0.20736658573150635, 0.15248256921768188, 0.133748859167099, 0.14411787688732147, 0.0015826316084712744, -0.0893317386507988, -0.021942956373095512, 0.0007531192386522889, -0.07386530935764313, 0.08836162835359573, 0.08974328637123108, 0.06215765327215195, 0.07058404386043549, 0.1927775889635086, 0.01983364298939705, -0.13519848883152008, -0.08109688013792038, 0.06796399503946304, -0.0018116062274202704, 0.04068228229880333, -0.1855766475200653, -0.167152538895607, 0.12701956927776337, 0.09781527519226074, -0.141758531332016, 0.03439704701304436, -0.08573708683252335], [0.08799281716346741, 0.041483696550130844, 0.12674939632415771, -0.12626147270202637, -0.1266835778951645, 0.0951450765132904, 0.1350109577178955, 0.0831194594502449, 0.09834084659814835, -0.10123599320650101, 0.10292217880487442, -0.11896184831857681, 0.002084767911583185, -0.07601134479045868, -0.032632745802402496, 0.02156149037182331, -0.027966070920228958, 0.007910113781690598, -0.11655810475349426, -0.11873982101678848, 0.04394969344139099, -0.030163414776325226, -0.06481494754552841, -0.025591708719730377, -0.09694987535476685, -0.10104377567768097, 0.07025492936372757, 0.06556759774684906, -0.003012020606547594, -0.055050283670425415, 0.016112489625811577, 0.009724291041493416], [-0.0791662335395813, -0.003150191390886903, 0.11310718953609467, -0.13737495243549347, -0.19799545407295227, -0.008071602322161198, 0.08507492393255234, -0.12159470468759537, 0.0005379802314564586, 0.07715491950511932, 0.0067871916107833385, 0.001418834668584168, 0.12831000983715057, 0.09452981501817703, -0.1005941703915596, -0.008615290746092796, 0.061277199536561966, 0.1300850659608841, -0.20998919010162354, 0.0744037926197052, -0.06984680145978928, -0.12507973611354828, 0.04408182576298714, -0.05014612525701523, -0.00192235317081213, -0.11155184358358383, -0.13374441862106323, -0.03324221074581146, -0.0529182106256485, 0.08796463906764984, 0.044159457087516785, 0.0952339693903923], [-0.0008137794211506844, -0.014482444152235985, 0.07274824380874634, -9.719849185785279e-05, -0.0007964583346620202, -0.014491325244307518, 3.410780118429102e-05, 0.0005070631159469485, -0.0007169422460719943, -0.09042184799909592, -1.5047451597638428e-05, -0.09911374747753143, -0.0013016590382903814, 0.05607293173670769, -0.07584217935800552, -0.07218531519174576, -0.0042916820384562016, -0.007943452335894108, -0.0016635649371892214, -0.001763331238180399, 0.043902840465307236, -0.0747305378317833, -0.0007646019803360105, 0.05265077203512192, 0.10517917573451996, -0.0008183707832358778, -0.05591617524623871, 0.009703338146209717, 0.05437006428837776, -0.06375349313020706, -0.056199416518211365, 0.033188436180353165], [-0.03130369260907173, -0.12686815857887268, -0.055571794509887695, 0.036868855357170105, -0.06930986791849136, 0.12056665122509003, 0.13645872473716736, 0.003739532083272934, 0.022003935649991035, -0.013885151594877243, -0.03218122199177742, -0.0011160076828673482, -0.08765017986297607, -0.06557640433311462, -0.16980060935020447, 0.13145308196544647, -0.11979344487190247, 0.1470513939857483, -0.012708762660622597, -0.06857722252607346, 0.06575652956962585, -0.0019864244386553764, 0.09514909982681274, 0.02923116646707058, -0.1223086416721344, 0.08452114462852478, -0.057642146944999695, -0.07503928244113922, 0.08737248927354813, 0.11091982573270798, -0.180540531873703, -0.036707695573568344], [0.12549908459186554, 0.10969221591949463, 0.10127034783363342, -0.014163307845592499, -0.10725142061710358, 0.15073832869529724, 0.09291479736566544, 0.14675644040107727, -0.034950122237205505, -0.06670930981636047, -0.04476551339030266, -0.118514284491539, 0.02518090046942234, 0.10615171492099762, 0.018444014713168144, 0.0063916281796991825, 0.08007531613111496, -0.1272004246711731, 0.20639675855636597, -0.14092928171157837, -0.18938998878002167, -0.003418418113142252, 0.11618661135435104, -1.7814032617025077e-05, 0.023936623707413673, -0.15798212587833405, 0.03892716392874718, -0.01670682057738304, 0.04482557997107506, 0.10609956085681915, 0.04703942686319351, -0.03655814751982689], [-0.00035061020753346384, -0.1007702425122261, -0.020477240905165672, 0.06803790479898453, -0.04469430074095726, 0.09225743263959885, -0.035005342215299606, -0.035936057567596436, -0.004560021683573723, -0.11434734612703323, -0.0038919278886169195, 5.7926736189983785e-05, -0.0005328482948243618, -3.263031248934567e-05, 0.09189243614673615, 0.11127059906721115, -0.11187232285737991, 0.06575436145067215, -0.09120109677314758, -0.10269833356142044, 0.03656526654958725, 9.182379289995879e-05, -0.059121888130903244, -0.12251177430152893, -0.02442059852182865, 0.01630435511469841, -0.11572977155447006, -0.14383623003959656, -0.001497528632171452, -0.1203279048204422, -0.10711029917001724, -0.045162227004766464], [0.0018816262017935514, -0.11278703808784485, -0.07110099494457245, 0.0005706135998480022, -0.11875689029693604, 0.0019032416166737676, -0.0673307478427887, -0.07547904551029205, 0.02534717135131359, -0.08865944296121597, -0.08661056309938431, 0.054505959153175354, -0.0008397691999562085, 0.11313660442829132, -0.0070696668699383736, -0.03990916535258293, -0.00040423142490908504, -5.0835904403356835e-05, 0.08744163066148758, -0.12802264094352722, -0.00078134163049981, 0.03324590623378754, -0.05120058357715607, -0.044076692312955856, 0.03995092958211899, -0.12140965461730957, 0.003489344846457243, -0.0894370824098587, 0.04223497956991196, -0.10345354676246643, 0.062059104442596436, -0.11939515918493271], [-0.10094001889228821, 8.935552614275366e-05, 0.09182513505220413, -0.10368898510932922, -0.033848583698272705, 0.10749327391386032, 0.0017142343567684293, 0.02872137539088726, -0.12207472324371338, -0.013462206348776817, -0.04402530938386917, 0.101373091340065, 0.028842153027653694, -0.08175098896026611, -0.0018772142939269543, -1.6252859495580196e-05, -0.0281759612262249, -0.054640334099531174, -0.015985282137989998, 0.09186633676290512, -0.07954151183366776, -0.07876516878604889, -0.012613574042916298, -0.00012056269770255312, 0.007695728447288275, 0.0002649150264915079, -0.003903897013515234, -0.060620639473199844, 0.0012469239300116897, -0.02685272879898548, 0.09527883678674698, -0.12406555563211441], [-0.06599047034978867, -0.0897921621799469, 0.001077046268619597, 0.10023287683725357, 0.1687694787979126, -0.10973376035690308, 0.03301781415939331, 0.11586368829011917, 0.08665600419044495, 0.09721609205007553, 0.03709803521633148, -0.07181502133607864, 0.07003920525312424, -0.02656390704214573, 0.0766223892569542, -0.005702667403966188, 0.10058800876140594, 0.18027089536190033, 0.1842287927865982, -0.11302386224269867, -0.08173283189535141, -0.028590643778443336, -0.10115034878253937, 0.12163899838924408, -0.0005975992535240948, -0.09517907351255417, -0.05686121806502342, -0.064670629799366, 0.05077255517244339, -0.12267092615365982, -0.15744154155254364, -0.12435535341501236], [0.031330663710832596, 0.041802432388067245, -0.06312780827283859, 0.004727704916149378, 0.08321836590766907, -0.0019660047255456448, -0.0009848172776401043, 0.0008325561648234725, 0.00045037761447019875, 0.04330431669950485, -0.07303613424301147, 0.04390382766723633, 0.05338158831000328, -0.06053975969552994, 0.09677562862634659, 0.12559697031974792, -0.025535963475704193, -0.008721645921468735, 0.04244966059923172, -0.09103455394506454, 0.025729885324835777, 0.003097338369116187, 0.06470518559217453, -0.10581102967262268, -0.09924230724573135, 0.03434832766652107, 0.020249079912900925, -0.1166297197341919, -0.0523756667971611, -0.11387943476438522, -0.07946757227182388, -0.034685853868722916], [0.12699440121650696, -0.021910568699240685, 0.05519397556781769, 0.11992663145065308, 0.059832729399204254, -0.17999526858329773, 0.043258339166641235, 0.04178551211953163, 0.1333916187286377, -0.12633861601352692, 0.07884961366653442, 0.0971185714006424, -0.11655969172716141, -0.005570259410887957, 0.12620924413204193, -0.11628066748380661, 0.03364182263612747, 0.0538797453045845, 0.05424218624830246, 0.14281058311462402, 0.12045694887638092, 0.10395987331867218, -0.045547567307949066, 0.1006181538105011, -0.11682945489883423, -0.12347452342510223, -0.06337893754243851, -0.07013383507728577, 0.138103649020195, 0.05984192714095116, 0.06700772047042847, 0.09760938584804535], [-0.10276605188846588, -0.06295403838157654, -0.001971940044313669, 0.001182464649900794, 0.09222891926765442, -0.07944698631763458, -0.0822722539305687, 0.165721595287323, -0.0858023464679718, -0.07572034001350403, 0.12370255589485168, 0.07271770387887955, -0.013331476598978043, -0.019955147057771683, -0.10451942682266235, -0.17213892936706543, 0.06092406436800957, -0.06944144517183304, 0.10613834112882614, -0.13236543536186218, -0.009685307741165161, -0.00010383233893662691, 0.11240239441394806, 0.09552185237407684, 0.07272608578205109, 0.10988426953554153, -0.05284399539232254, -0.13322921097278595, -0.12753498554229736, 0.020376211032271385, 0.19979359209537506, -0.017354648560285568], [-0.016530700027942657, -0.08546677976846695, 0.012400315143167973, 0.07224549353122711, -0.182003453373909, -0.13207095861434937, 0.08365367352962494, 0.032514993101358414, -0.0004783935728482902, -0.0012794446665793657, -0.03533283621072769, -0.07646355032920837, -0.11726812273263931, 0.10909795016050339, -0.029906736686825752, -0.06292684376239777, -0.05145382508635521, -0.10483250766992569, -0.05374957248568535, -0.1084117442369461, 0.12392661720514297, 0.027773045003414154, -0.09788090735673904, -0.017391661182045937, 0.03426824137568474, -0.0743371769785881, 0.037621237337589264, 0.052222538739442825, -0.12008800357580185, 0.03565356507897377, -0.006205500103533268, 0.1464010328054428], [-0.04367838427424431, -0.08857755362987518, 0.10459335893392563, -0.1113804429769516, 0.023128068074584007, 0.17118486762046814, -0.1062365397810936, 0.1936916559934616, 0.11596434563398361, 0.1165553480386734, 0.008212673477828503, 0.11207811534404755, -0.032170455902814865, -0.03514190763235092, 0.09253086894750595, 0.012478990480303764, 0.10509206354618073, 0.18400678038597107, -0.14547349512577057, 0.07432112842798233, 0.08061450719833374, 0.047320373356342316, 0.11322584748268127, -0.022383078932762146, -0.09223499149084091, 0.17157849669456482, -0.07353375107049942, 0.10981334745883942, -0.1406475454568863, -0.010790985077619553, 0.031222857534885406, 0.05327073857188225], [-0.01045073103159666, 0.10571618378162384, 0.0006988304667174816, 0.016318785026669502, 0.19775564968585968, -0.07982280850410461, 0.03519802913069725, -0.059136249125003815, 0.15250267088413239, 0.10362718254327774, 0.006130827125161886, -0.018189294263720512, -0.06258045136928558, 0.1139627993106842, -0.01346380915492773, 0.19032804667949677, 0.12463374435901642, 0.1746463179588318, 0.1715453714132309, -0.06817518174648285, 0.06303804367780685, -0.028781220316886902, 0.06902910768985748, -0.0005295731243677437, 0.0006647524423897266, -0.12695689499378204, -0.16020376980304718, 0.08196822553873062, 0.03233269229531288, 0.025266990065574646, 0.08100476861000061, -0.06710261851549149], [0.019451843574643135, -0.05121384933590889, 0.0006107402150519192, -0.0025758445262908936, 0.07669772207736969, 0.10683254897594452, 0.10579663515090942, -0.0004635986406356096, 0.057792097330093384, -0.12855662405490875, -0.05726674944162369, -0.0012811175547540188, -3.733537596417591e-05, -0.09132052958011627, -0.03328806906938553, -0.03728046640753746, -0.12709416449069977, 0.0002556611434556544, 0.07349655032157898, 0.027378519997000694, -0.03860906511545181, -0.11445186287164688, -0.09507924318313599, -0.0001759824517648667, 0.07456440478563309, -0.02723689377307892, -0.05010097473859787, -0.04830680787563324, -0.0006647955742664635, -0.11992207914590836, -0.10821713507175446, 0.1259819120168686], [-0.07269643992185593, 0.001200940227136016, -0.007102149538695812, -0.10753216594457626, -0.020158588886260986, 0.03211221471428871, -0.0274093858897686, -0.002955030184239149, 3.749854295165278e-05, -0.12792225182056427, 0.10610086470842361, 0.09525174647569656, 0.07351569086313248, -0.04665766656398773, 0.07019395381212234, -0.11770251393318176, -0.03245576098561287, -0.024837639182806015, -0.019173821434378624, 0.02963685616850853, -0.06903360038995743, 0.000961365585681051, -0.039660800248384476, -0.11807909607887268, 0.001787023153156042, -0.1381412148475647, 0.08092133700847626, 0.06909804046154022, 0.14334511756896973, -0.047968875616788864, -0.00030982232419773936, 0.012953883036971092]], "fc2.bias": [0.17247092723846436, 0.16780617833137512, -0.04564381390810013, -0.10273482650518417, -0.11149585247039795, -0.039668839424848557, 0.15232224762439728, 0.05760394036769867, 0.18010668456554413, 0.14429546892642975, 0.00010301326983608305, -0.1128961518406868, 0.16852699220180511, 0.14441923797130585, 0.09641366451978683, -0.05367358401417732, 0.12023494392633438, 0.00047877104952931404, 0.11289212852716446, 0.06982496380805969, 0.08053719997406006, -0.10735298693180084, -0.05184011906385422, 0.12249255180358887, -0.000705852173268795, -0.1737590730190277, 0.15594971179962158, -0.00318357115611434, 0.14641588926315308, -0.12197814881801605, 0.01783791556954384, -0.05509192869067192], "fc3.weight": [[-0.06507447361946106, -0.0421275831758976, -0.021775871515274048, 0.050742436200380325, 0.0006540869362652302, 0.08667679131031036, 0.05888156592845917, -0.031231798231601715, -0.12228357791900635, -0.18915610015392303, -0.010280132293701172, -0.15722113847732544, -0.01483794953674078, 0.028170563280582428, -0.04892241954803467, -0.06317842751741409, 0.10140964388847351, 0.05330672860145569, -0.025471502915024757, -0.05454019457101822, 0.06723424792289734, 0.10605745017528534, -0.11399436742067337, -0.07006104290485382, -0.00039133551763370633, -0.04095609486103058, 0.14835630357265472, -0.02875877171754837, 0.16302716732025146, -0.04921041429042816, 0.0005261555197648704, -0.07984910905361176]], "fc3.bias": [-0.05490502342581749]}}