{"input_dim": 13, "hidden_dim": 32, "feature_names": ["semantic_sim", "lexical_sim_bm25", "cross_substrate_agreement", "recency_baseline", "source_type", "max_substrate_score", "singleton_raw_turn_hit", "entity_overlap", "claim_graph_relevance", "supersede_edge_count", "validity_interval_freshness", "contradiction_count", "time_volatility"], "state_dict": {"fc1.weight": [[-0.024467833340168, 0.12429804354906082, -0.25022801756858826, -0.11841651052236557, -0.13159765303134918, 0.05008493363857269, -8.751653290950401e-10, 0.19294020533561707, -0.044156208634376526, 0.01808246597647667, -0.108887679874897, -0.02214192785322666, -0.09955298900604248], [-0.2524300813674927, -0.07612824440002441, 0.05131340026855469, 0.24708355963230133, 0.24454835057258606, -0.23452217876911163, 0.04702700674533844, -0.05595950037240982, 0.16880667209625244, 0.11522980034351349, 0.2832936942577362, 0.09735707193613052, 0.0910693109035492], [0.10228355973958969, -0.0497920960187912, -0.05962968245148659, -0.007058640010654926, -0.01474942546337843, 0.09235026687383652, -0.01896461844444275, -0.002903776941820979, -0.07635389268398285, -0.05135638639330864, -0.05086696147918701, 0.04208063706755638, 0.00020963822316844016], [0.0383603610098362, 0.05999007076025009, -0.07537613809108734, 0.09334548562765121, -0.11023271828889847, -0.20568303763866425, -0.08149531483650208, -0.0341608002781868, 0.06582300364971161, 0.0913974866271019, 0.07342217117547989, 0.22574657201766968, 0.12281084805727005], [0.028318064287304878, 0.021684972569346428, 0.20268234610557556, -0.03265152871608734, 0.10958380252122879, -0.2800375819206238, -0.085019052028656, -0.2856629490852356, 0.06104129180312157, 0.2208506166934967, -0.10840648412704468, 0.13884222507476807, 0.10576549172401428], [-0.10065436363220215, 0.04627333581447601, 0.15105284750461578, 0.35306456685066223, 0.4108826518058777, -0.25667276978492737, 0.021524256095290184, -0.0329388752579689, 0.17816051840782166, 0.4168281555175781, 0.38614463806152344, 0.14628727734088898, -0.08181536197662354], [0.03512037917971611, -0.04696093872189522, -0.10911061614751816, 0.47545239329338074, 0.3935595154762268, -0.2434805929660797, 0.04549671709537506, -0.10665585100650787, -0.0016692121280357242, 0.09327204525470734, 0.286406010389328, 0.004808770027011633, 0.2481408566236496], [0.2756935656070709, 0.2795668840408325, 0.14773593842983246, -0.26928988099098206, -0.2597983479499817, 0.33234909176826477, 0.16178947687149048, 0.02305382676422596, -0.03693912923336029, 0.06070748344063759, 0.11084423959255219, -0.2277166247367859, -0.11212222278118134], [-0.31993573904037476, 0.028639374300837517, -0.13389952480793, -0.017519677057862282, 0.1420033574104309, -0.02764142118394375, -0.12005215883255005, 0.021728666499257088, -0.18907767534255981, 0.4310424327850342, 0.34392350912094116, -0.03688065707683563, 0.1034795418381691], [0.1482653170824051, 0.10728592425584793, 0.1312316507101059, 0.04818824678659439, 0.051809631288051605, -0.012105794623494148, 0.0012471498921513557, -0.12863388657569885, -0.03496800363063812, -0.18460461497306824, -0.09456062316894531, -0.1564597487449646, -0.1484868824481964], [-0.145278200507164, 0.06496085226535797, -0.14051014184951782, 0.15171754360198975, 0.3117021322250366, -0.09017819911241531, -1.3358057993073658e-09, -0.11562452465295792, -0.013143128715455532, 0.33399540185928345, 0.3722432553768158, 0.26810595393180847, 0.2702804207801819], [3.6527481039883014e-09, -0.04474779590964317, -0.001269212574698031, 0.014513135887682438, -2.836028634156662e-10, -0.0019311554497107863, -0.024692606180906296, -0.05123106390237808, -0.03593811020255089, -3.7459717106003154e-08, 0.004104426596313715, 0.0037109607364982367, -0.05636369809508324], [0.009859029203653336, -0.026892537251114845, -0.002981768688187003, -0.00021391398331616074, -0.0006417127442546189, 4.2331912482040934e-06, -0.04458410292863846, -0.03900696709752083, 6.955251137696905e-06, -2.69493621862793e-10, -0.0009262958774343133, 6.492729153251275e-05, -0.045041583478450775], [0.06125231087207794, 0.24503353238105774, -0.10449381917715073, 0.12130160629749298, 0.0359940305352211, -0.14111918210983276, 0.21563075482845306, 0.12406416982412338, -0.04801519215106964, 0.046638112515211105, -0.2796957790851593, -0.08026120811700821, -0.06730030477046967], [0.28694912791252136, 0.09882932156324387, 0.1736343502998352, 0.051642972975969315, -0.049988556653261185, 0.024803301319479942, -0.008429867215454578, 0.2528785169124603, 0.3021268844604492, 0.05555030703544617, -0.17465227842330933, -0.11301063746213913, -0.10935284197330475], [-0.20652398467063904, -0.09408237785100937, 0.14770901203155518, -0.04575531184673309, 0.14763982594013214, -0.1373574137687683, 0.0997052863240242, -0.4469320774078369, -0.2241608202457428, 0.04259905219078064, 0.344383180141449, 0.056728724390268326, 0.339674711227417], [0.021413110196590424, 0.0476059727370739, 0.019729722291231155, 0.05481622368097305, 0.15743811428546906, -0.16760416328907013, -0.0559590645134449, -0.12774690985679626, -0.2759106457233429, 0.03362024948000908, 0.3422505259513855, -0.04746449738740921, 0.08168181031942368], [0.20261909067630768, 0.12292219698429108, 0.05228865519165993, -0.07149241864681244, 0.21962155401706696, -0.24328835308551788, 0.040616393089294434, -0.20095862448215485, -0.10139206051826477, 0.14616940915584564, 0.3077000677585602, 0.12435870617628098, 0.24737781286239624], [0.1503375619649887, -0.17035897076129913, 0.15317308902740479, -0.13050243258476257, 0.016408530995249748, -0.04806532710790634, 0.006059274543076754, 0.023617971688508987, -0.09643065184354782, 0.16282403469085693, 0.27607467770576477, -0.1163330003619194, 0.2713514566421509], [-0.09499827772378922, -0.011781221255660057, -0.059358157217502594, -0.009239631704986095, 0.018647432327270508, 0.14340953528881073, 4.354278075879847e-07, -0.0063851759769022465, -0.034173138439655304, -0.061302926391363144, 0.10113650560379028, -0.0014300153125077486, -0.011273710057139397], [-0.062345124781131744, 0.19345416128635406, 0.17852528393268585, 0.1732003092765808, 0.012979811057448387, 0.06558502465486526, 0.016149157658219337, 0.2818774878978729, 0.310924768447876, -0.09596361964941025, -0.2138993740081787, -0.21442823112010956, -0.2245505154132843], [-8.267926787652868e-09, -0.004803797695785761, -0.04361552745103836, 0.0411844477057457, -0.011415718123316765, 1.0740985878499032e-10, -1.2247392078279518e-07, -1.5924531693300992e-09, -0.013688658364117146, -0.03055988997220993, 0.028939172625541687, 4.451524482362856e-09, 0.03372901305556297], [0.036382079124450684, 0.13003703951835632, -0.00838762428611517, -0.021664060652256012, -0.24268823862075806, 0.2675149738788605, 0.18026743829250336, 0.22318655252456665, 0.05380254238843918, -0.2925341725349426, 0.1206255853176117, -0.26214155554771423, 0.021181683987379074], [-1.770337462403404e-06, -0.0014903650153428316, -2.0454244520351494e-08, -0.002756767440587282, -7.870277585197982e-08, 2.9383830479901007e-08, -0.021606435999274254, -5.1924970989603025e-09, 0.00040660714148543775, 0.0001500201178714633, -4.295748645688491e-09, -0.03225012868642807, -1.5162658684175767e-08], [8.772476576268673e-06, -3.3844942663563415e-05, 7.472950528608635e-05, 0.012996934354305267, -0.0028685876168310642, 3.54987372830351e-10, 0.0002792347513604909, 4.786445906290737e-09, -2.260834408573942e-09, 5.972870642523276e-09, -0.027397627010941505, 4.7772426015058045e-09, 0.015743078663945198], [0.38584572076797485, 0.22561410069465637, 0.09054145216941833, 0.05794932693243027, -0.12319779396057129, -0.10792284458875656, -0.03844447433948517, 0.4153326749801636, 0.3040306866168976, -0.34185874462127686, 0.12380168586969376, 0.03626489266753197, 0.2074899971485138], [0.3126680552959442, 0.19127103686332703, -0.057671573013067245, -0.12908314168453217, 0.21214604377746582, 0.20931535959243774, -0.08071772754192352, 0.30233559012413025, 0.1892465502023697, 0.014544536359608173, -0.18428297340869904, -0.044495511800050735, -0.08232787996530533], [0.22103027999401093, 0.025557411834597588, 0.1686040610074997, 0.14219623804092407, 0.24820473790168762, -0.12851954996585846, 0.10325664281845093, -0.23813770711421967, 0.07975292950868607, -0.042520150542259216, -0.14366796612739563, -0.10318204760551453, 0.20050808787345886], [0.096236951649189, 0.20873218774795532, 0.19267532229423523, -0.18347284197807312, -0.20592373609542847, -0.09521400928497314, -0.011417658999562263, 0.12849056720733643, -0.2585335373878479, -0.08357739448547363, -0.28603631258010864, -0.05417273938655853, 0.11431612819433212], [0.3091804087162018, 0.2081894427537918, 0.18804700672626495, 0.13342638313770294, -0.1993592232465744, 0.25240862369537354, 0.325935423374176, 0.2869451940059662, 0.3427191972732544, -0.0457698293030262, 0.04774938523769379, -0.21593575179576874, 0.003330211853608489], [-0.03354410082101822, -0.011818923987448215, -0.06705281883478165, -0.07935384660959244, -0.12218254059553146, 0.34247538447380066, 0.2862592339515686, 0.19451826810836792, -0.005867874249815941, 0.06843689829111099, 0.0280902162194252, -4.992627977706832e-10, -0.001657376647926867], [0.15211892127990723, 0.11578058451414108, -0.19336019456386566, 0.36226147413253784, 0.29957059025764465, -0.1826770007610321, 0.18362361192703247, -0.31437188386917114, -0.13278350234031677, 0.39961540699005127, 0.0972454845905304, -0.03882041200995445, 0.014072339981794357]], "fc1.bias": [-0.10037629306316376, 0.04274149239063263, 0.00045772147132083774, 0.2775355875492096, 0.0710439383983612, -0.024314850568771362, 0.20687206089496613, 0.17366941273212433, 0.24777106940746307, -0.21742869913578033, 0.06410875171422958, -0.021688831970095634, -0.003404154209420085, 0.08120959997177124, -0.16983570158481598, 0.14211764931678772, 0.27495649456977844, 0.11498832702636719, -0.18886640667915344, -0.10797395557165146, 0.0972791239619255, -0.02416263148188591, 0.17890433967113495, -0.04636817052960396, -0.0557921938598156, -0.2575591206550598, -0.0725322961807251, 0.23983219265937805, -0.27875590324401855, 0.19356407225131989, -0.02168409153819084, 0.1504196673631668], "fc2.weight": [[-0.01709354855120182, -0.0031439769081771374, 0.004692594520747662, 0.1565215289592743, 0.17407715320587158, 0.13521873950958252, 0.10664073377847672, 0.09474161267280579, 0.26122650504112244, 0.0277254655957222, -0.09907306730747223, 1.3438719470570959e-08, -0.009335805661976337, -0.09470303356647491, -0.027956796810030937, -0.07140185683965683, 0.08915072679519653, 0.0988004133105278, 0.068325474858284, -0.04621576517820358, -0.17944227159023285, -3.0041984899753515e-08, -0.0004434109141584486, 0.009586445055902004, 3.734663187060505e-05, -0.07434006035327911, 0.015983011573553085, -0.18434761464595795, -0.19068631529808044, 0.026968713849782944, -0.2271064966917038, 0.09779942035675049], [-0.11640911549329758, 0.08626902103424072, -0.007375949528068304, 0.14383342862129211, 0.027437184005975723, 0.23111869394779205, 0.3378289043903351, 0.04039676487445831, 0.2790016829967499, -0.0712694302201271, 0.09696822613477707, -4.09473122076065e-09, -1.807898343031411e-06, -0.1272563636302948, 0.06446182727813721, 0.046624988317489624, -0.06209908798336983, -0.031989868730306625, 0.20041128993034363, 0.03214561194181442, -0.19654297828674316, 0.0007490205462090671, -0.02668970637023449, 6.681131344521418e-05, 0.0036579931620508432, -0.15684986114501953, 0.008003569208085537, 0.05171049386262894, -0.08984667807817459, -0.0029640914872288704, -0.20448890328407288, 0.2089942842721939], [-0.0034963120706379414, 0.14287661015987396, -0.001176791382022202, 0.13521292805671692, 0.02273445762693882, 0.05914049968123436, 0.17406438291072845, -0.0030966189224272966, 0.22672529518604279, -0.011624486185610294, 0.12555184960365295, -0.0009843976004049182, -5.840711673954502e-05, 0.017131177708506584, 0.023661445826292038, 0.10459291934967041, 0.08686590939760208, 0.034546636044979095, 0.1250114142894745, 0.009115352295339108, -0.06025920435786247, -0.0026452878955751657, -0.07370530068874359, 1.425029122481547e-10, -5.344313436239645e-09, -0.07679782807826996, -0.03138812258839607, 0.031218145042657852, -0.037020664662122726, -0.010411703027784824, -0.03629356250166893, 0.11533364653587341], [0.0029506932478398085, 0.034278396517038345, -0.0003211593138985336, 0.06823503226041794, 0.03421511501073837, 0.04117300733923912, 0.018335819244384766, -0.01002758089452982, 0.07366865128278732, 0.013676787726581097, 0.0434805266559124, -2.7685884695927143e-09, 1.0459875632307103e-08, 0.028078164905309677, -0.0007442287169396877, 0.030149390920996666, 0.014738951809704304, 0.03072710521519184, 0.004303985740989447, 1.2725574379146565e-05, 0.007150204852223396, 0.007402647752314806, 0.000712739652954042, -1.2495439127846453e-09, 0.0020100343972444534, 0.008646639995276928, 0.01695192977786064, 0.014580436050891876, 0.020981308072805405, -0.0004451625281944871, -0.013531716540455818, 0.07478483766317368], [0.02232145518064499, -0.053600262850522995, -0.00043746759183704853, -0.048169612884521484, 0.00031456592842005193, -0.014776329509913921, -0.06111471727490425, 0.051303405314683914, -0.08869423717260361, 0.019564786925911903, -0.011744215153157711, -4.1091364977319245e-08, 0.002272171201184392, 0.024862464517354965, 0.05025038868188858, -0.027270091697573662, -0.03274175152182579, 0.045949265360832214, 0.030506500974297523, 1.8082317865264486e-07, 0.01528667937964201, 0.006636450067162514, 0.10751163214445114, 0.005662689451128244, -0.0035672402009367943, 0.03713751584291458, 0.024174435064196587, 0.07733527570962906, 0.014812029898166656, 0.06303496658802032, 0.08046694099903107, -0.04449716582894325], [-0.06404706835746765, -4.343534237705171e-05, 1.304125363255082e-09, -0.0019134136382490396, 0.0651613399386406, -0.038163892924785614, 8.58390994835645e-05, 0.12396395951509476, -0.0003439548599999398, 0.0016907715471461415, 0.09250982850790024, -5.085768695067827e-09, 5.966679168523115e-07, 0.13450223207473755, 0.01841626688838005, -0.009387279860675335, -0.03317684307694435, -0.09317195415496826, 0.004669721703976393, 6.047122802499416e-09, -0.13370028138160706, -1.7033733312743493e-09, 0.06804180145263672, -2.739069193680166e-09, 3.738248466333971e-08, 0.0012868762714788318, 0.04524635896086693, -4.867261304752901e-05, -0.059084851294755936, -0.145401269197464, -0.001427216688171029, 0.04770343750715256], [-0.04461292177438736, -0.15805001556873322, 0.0014704159693792462, -0.10884084552526474, -0.09104514122009277, 0.14578165113925934, -0.33524206280708313, 0.2498944252729416, -0.3818216621875763, 0.0717797800898552, 0.08203425258398056, -1.9704714304680238e-07, 0.003451088210567832, -0.04723327234387398, -0.03220310062170029, -0.1446845531463623, 0.016555245965719223, 0.19225859642028809, -0.13258452713489532, 0.010829728096723557, 0.048913151025772095, 1.09334834519359e-08, 0.27173614501953125, -0.0018316421192139387, 2.906231921784297e-10, 0.26839709281921387, 0.06490669399499893, 0.18060828745365143, 0.023283638060092926, 0.24600820243358612, 0.004226522520184517, -0.00786468293517828], [-0.0491696335375309, 0.2615962624549866, -0.00295019568875432, 0.18792861700057983, 0.008046685717999935, 0.08591160178184509, 0.36262986063957214, -0.08715331554412842, 0.445651650428772, -0.1528742015361786, 0.09771725535392761, -1.7181193134874206e-09, -2.381028139097907e-07, 0.12552671134471893, -0.11439986526966095, -0.03674644976854324, 0.17739932239055634, 0.10278360545635223, 0.12895821034908295, -0.013331363908946514, 0.0855230912566185, 0.00760192284360528, -0.0517263300716877, -0.006994737312197685, 0.0007125289412215352, -0.19537879526615143, -0.012122760526835918, 0.038416292518377304, -0.12126635015010834, 0.017460733652114868, -0.25911369919776917, 0.12960299849510193], [-0.10150570422410965, 0.1517668515443802, -0.0011115032248198986, 0.21044088900089264, -0.037625085562467575, 0.20220138132572174, 0.20356710255146027, -0.12840275466442108, 0.11179998517036438, -0.1799110323190689, 0.28988468647003174, -1.226565338185992e-08, -4.761490401961055e-08, 0.048754431307315826, 0.055498115718364716, 0.21190012991428375, 0.2182111293077469, -0.07107221335172653, 0.019226090982556343, -0.048973198980093, -0.12352820485830307, 1.2656123260512686e-08, 0.05974886193871498, -0.0024086206685751677, 9.905878687277436e-05, -0.13595449924468994, -0.06551996618509293, 0.12023212015628815, -0.06475989520549774, -0.034423235803842545, -0.2846033573150635, 0.23697927594184875], [-0.024614740163087845, 0.050197627395391464, -0.0016483098734170198, 0.02505161054432392, -0.08361345529556274, 0.10949138551950455, 0.3691903352737427, -0.06384690850973129, 0.338643878698349, 0.10252504050731659, 0.24081933498382568, -1.0310709512850735e-06, -7.741620606793731e-07, -0.03914995118975639, -0.19532284140586853, 0.09364691376686096, 0.22861219942569733, 0.2174161970615387, 0.06796345859766006, 0.035200126469135284, -0.06959744542837143, 0.0014532549539580941, -0.1249331384897232, -0.0006359262042678893, 5.540718550633983e-09, 0.07488621771335602, -0.17975100874900818, 0.1753302663564682, 0.04726654663681984, -0.1398119479417801, -0.11939957737922668, 0.24401211738586426], [-0.08643105626106262, 0.19827677309513092, -0.0028589742723852396, 0.013344940729439259, 0.10452219098806381, 0.15239940583705902, 0.2727917432785034, -0.06970766186714172, 0.3683668076992035, -0.07750584930181503, 0.2604867219924927, -0.008208796381950378, -0.005183632951229811, 0.09074577689170837, -0.0652184709906578, 0.14843769371509552, 0.04786068946123123, 0.029544426128268242, 0.0708194375038147, -0.008854183368384838, 0.011003706604242325, -2.105360774606879e-09, -0.004231475293636322, 3.4300565943112815e-08, 0.0076825376600027084, -0.02609408274292946, -0.04791911318898201, 0.022577226161956787, -0.08560015261173248, -0.07980931550264359, -0.04383690655231476, 0.10250989347696304], [0.06367465108633041, 0.12935079634189606, 0.010430808179080486, 0.060513708740472794, 0.016366180032491684, 0.21333739161491394, 0.33832502365112305, -0.1297856569290161, 0.2555672526359558, -0.027595575898885727, -0.014830942265689373, 3.348183597040588e-08, -2.19332264350669e-07, -0.13282790780067444, -0.04124045744538307, 0.2528485357761383, 0.0014370422577485442, 0.16618908941745758, 0.09310831874608994, 0.00018776171782519668, 0.14999522268772125, -2.502279272675878e-08, 0.05735570564866066, 1.5863054869669213e-08, -3.3630991325139803e-09, -0.08656962215900421, -0.04678988456726074, 0.0077118887566030025, 0.007410724181681871, -0.016878457739949226, 0.008060581050813198, 0.001386270741932094], [-0.002808616729453206, -0.05207693576812744, -0.0033521850127726793, -0.045028213411569595, -0.00042780060903169215, -0.0628839060664177, -0.00043873442336916924, 0.031934577971696854, -0.05065632984042168, 0.08907884359359741, -0.01656518504023552, -5.1283528534895595e-08, 1.7382377848207398e-07, -0.06830042600631714, 0.06088503450155258, 0.1414540410041809, -0.00372124882414937, 0.01598334312438965, 0.03638926520943642, 0.018914785236120224, -0.08766760677099228, -2.9520811040129047e-06, 0.07364615797996521, -0.004441861063241959, 9.689196667217459e-11, -0.10287836939096451, 0.09457771480083466, -0.1497335582971573, 0.08009804040193558, 0.1635417938232422, 0.05050196498632431, -0.044371604919433594], [0.25915291905403137, -0.2363947033882141, 0.0016294998349621892, -0.12982472777366638, 0.01675860397517681, 0.03902256861329079, -0.16804523766040802, 0.09627734124660492, -0.37571629881858826, 0.13363029062747955, 0.012139858677983284, 6.278350728194937e-09, 0.0016553218010812998, 0.2674586772918701, 0.03905512019991875, -0.05112862586975098, -0.05675618350505829, -0.10952234268188477, -0.14599986374378204, 0.010097290389239788, 0.21952922642230988, 5.006051651434973e-06, 0.26553285121917725, -0.0022527745459228754, 1.7252573814019456e-09, 0.29103735089302063, 0.017503254115581512, 0.22173476219177246, 0.1501404345035553, 0.2548595368862152, 0.1123204156756401, 0.11859897524118423], [-0.04402938857674599, 0.21367882192134857, -0.0026428315322846174, 0.1319449543952942, 0.23066803812980652, 0.29973775148391724, 0.394305557012558, 0.09502407908439636, 0.4198605418205261, -0.014126255176961422, 0.05520785227417946, 7.378332611551741e-08, 3.5727686054087826e-07, -0.05833303928375244, 0.029546331614255905, 0.15610462427139282, 0.15117743611335754, 0.1507265865802765, 0.20891191065311432, 0.00012086988135706633, -0.1398651897907257, -0.001004551537334919, -0.010442584753036499, -5.480768283661064e-09, -1.5767192280691233e-06, -0.20814542472362518, -0.17941877245903015, 0.11223585903644562, 0.10416285693645477, -0.1895545870065689, -0.05856240913271904, 0.04635307192802429], [0.10362151265144348, 0.2705017030239105, 0.022967252880334854, -0.003873020876199007, -0.11445426195859909, 0.19689427316188812, 0.3589475750923157, 0.08936694264411926, 0.3710080683231354, -0.15858528017997742, 0.23855289816856384, -0.007460098713636398, 3.4310301089135464e-07, -0.08461811393499374, -0.12134356796741486, 0.18566982448101044, 0.043982647359371185, 0.03840583935379982, -0.0437442883849144, -0.007274522911757231, 0.053787313401699066, -2.570951664893073e-07, -0.12174291908740997, -7.139775703990381e-08, -0.002824609400704503, -0.1686965972185135, 0.06134214997291565, 0.13603538274765015, -0.025556661188602448, -0.09582291543483734, -0.038363978266716, 0.09706354886293411], [-0.10564960539340973, -0.05106392502784729, 0.008875492960214615, -0.20841367542743683, -0.27530810236930847, -0.0689033642411232, -0.031172137707471848, -0.06789115816354752, -0.09295439720153809, -0.019907614216208458, -0.0398048497736454, -1.110751757238404e-08, 0.010205460712313652, 0.0989210233092308, -0.10483632981777191, 0.014599713496863842, 0.03742310777306557, 0.06676901131868362, -0.17812801897525787, 0.04907422140240669, -0.041586536914110184, -0.009205036796629429, 0.14453020691871643, -8.500922376697417e-06, -1.7876449209808243e-09, -0.15166881680488586, -0.17290252447128296, 0.015267247334122658, -0.07945497334003448, 0.1402292251586914, 0.17809823155403137, 0.02475128322839737], [8.630546055599098e-09, -3.570993456492033e-08, 0.00047766848001629114, 9.809095757873365e-10, 8.744517998593437e-09, -3.565544304251489e-08, 6.942230124096227e-11, -8.579366550520717e-09, -3.0064937206475406e-09, -0.0019321823492646217, 1.7562074017263285e-10, -0.0031675135251134634, 1.1424592827324886e-08, 4.4103391701355577e-05, -0.000642957747913897, -0.00045107913319952786, -1.5200594560838e-08, 2.147795719054102e-08, -7.52198303644036e-09, -6.628896986882182e-09, -1.353049697172537e-06, -0.0005797397461719811, -1.3905955276172222e-09, 1.924561001942493e-05, 0.004257877357304096, -2.374343388567013e-09, -4.265565803507343e-05, -1.3702980083962757e-08, 3.004823338415008e-05, -0.00016422176850028336, -4.5295651943888515e-05, 6.573836230927554e-08], [-0.044468194246292114, -0.03881850093603134, -0.00031791027868166566, 0.10988396406173706, -0.07770305126905441, 0.14027529954910278, 0.35100120306015015, -0.038985930383205414, 0.19597794115543365, -0.14212201535701752, -0.0016330494545400143, 4.2241738995585365e-09, -0.0016135990153998137, -0.08444216102361679, -0.21759559214115143, 0.16014225780963898, -0.10358534008264542, 0.14073003828525543, -0.008224624209105968, -0.0223495215177536, 0.02837524749338627, 5.787502921350551e-09, 0.03183668479323387, 2.4901621031858667e-07, -0.008390252478420734, 0.04782794043421745, -0.08606826514005661, -0.10646794736385345, 0.06537718325853348, 0.06503134220838547, -0.2897450625896454, -0.02903676964342594], [0.11352165788412094, 0.20632575452327728, 0.004337402526289225, 0.06727579981088638, -0.10377274453639984, 0.1893930435180664, 0.29074299335479736, 0.10916387289762497, 0.15050755441188812, -0.1733735054731369, 0.0047576515935361385, -0.0073402030393481255, 1.3665970755027956e-07, 0.09405161440372467, -0.020278986543416977, 0.034560319036245346, 0.10759753733873367, -0.11664566397666931, 0.2114943414926529, -0.07327872514724731, -0.21895946562290192, -1.1828898749399741e-08, 0.05285404622554779, 3.191216180198353e-09, -1.4779671708708975e-08, -0.1839141845703125, 0.017991354689002037, -0.041705261915922165, 0.028310565277934074, 0.06267508864402771, -0.07905734330415726, -0.016926683485507965], [-2.0311325954480708e-09, -0.08318407088518143, 7.89296734637901e-08, -0.0002875981735996902, -0.03064882382750511, 0.07215674221515656, -0.01732765883207321, -0.033856552094221115, -0.0030973278917372227, -0.006275173742324114, -0.011498398147523403, -3.5580278723301717e-09, 1.0910136127861847e-09, -2.339546335861087e-05, 0.0021149918902665377, 0.08633650839328766, -0.1027929037809372, 0.04876593500375748, -0.0046043070033192635, -0.005755734629929066, 0.021731434389948845, -3.807850423864778e-10, -0.025600451976060867, -0.008448595181107521, -7.776313815099911e-09, 0.0014155685203149915, -0.037918608635663986, -0.08417315036058426, 2.6598916402775785e-09, -0.11537518352270126, -0.004645603708922863, -0.022925937548279762], [1.8263596190948306e-09, -0.005900211166590452, -0.0004027371760457754, -1.5924288554458599e-09, -0.0074050696566700935, 3.0434224029818324e-09, -0.0002622233296278864, -0.0006218209746293724, 5.7334936798270064e-08, -0.0017266578506678343, -0.001505915424786508, 3.1040024623507634e-05, 8.431233489147871e-09, 0.0059830909594893456, 1.4837258532907072e-08, 1.4387528608494904e-06, 3.307058848989186e-09, 1.1444077629985117e-10, 0.0015931304078549147, -0.010114273987710476, -2.0114407917048993e-09, 5.83324961667131e-08, -1.2384374713292345e-05, 1.2847194739151746e-06, -1.4472691418632166e-06, -0.00813458301126957, 1.2436458085574031e-08, -0.0018155357101932168, -1.674792997619079e-06, -0.003928071353584528, 0.0001282043958781287, -0.007577185519039631], [-0.06483443081378937, 0.08640721440315247, 0.002631889656186104, 0.07595004886388779, 0.015913134440779686, 0.0865592509508133, 0.09448252618312836, -0.01684841327369213, 0.08234547078609467, -0.02041194774210453, 0.0613391175866127, 0.003551241010427475, 2.3881199240349815e-07, -0.03039594553411007, -0.050114184617996216, 0.05299774557352066, 0.04422938451170921, 0.01108928956091404, 0.02101386897265911, 0.0021591612603515387, -0.04907155781984329, -0.0008308709366247058, -0.025200141593813896, 4.906381412261851e-10, -2.0244080189968372e-08, -0.033811938017606735, -0.03203536942601204, -0.014993976801633835, -0.01909613236784935, -0.023865938186645508, 0.016875488683581352, 0.00027509007486514747], [-0.09578955918550491, 0.08348695188760757, -0.0015285061672329903, 0.19517837464809418, 0.21292978525161743, -0.040840331465005875, 0.22898243367671967, 0.10601605474948883, 0.3223641812801361, 0.08712540566921234, 0.14535322785377502, -0.0004341495514381677, 0.0003679961373563856, -0.02705790102481842, 0.01767180673778057, 0.0997413918375969, 0.1922275573015213, 0.2393486052751541, 0.23127803206443787, -0.005912727676331997, -0.08916762471199036, -2.3041792474032263e-07, -0.12960916757583618, 0.008199388161301613, -8.576562238182817e-10, -0.1344461441040039, -0.09227339178323746, -0.042358774691820145, 0.0417654849588871, -0.14484010636806488, -0.1861003041267395, -0.04606391116976738], [-0.004284248687326908, 0.197500541806221, -0.005150080192834139, 0.10977582633495331, 0.1088019460439682, 0.07090394198894501, 0.1642928272485733, -0.0045544798485934734, 0.2182510644197464, 0.000759159040171653, 0.05939719080924988, -1.3526816928788321e-06, 2.427439540042542e-05, -0.02233196422457695, 0.006040765903890133, 0.22873717546463013, 0.08079391717910767, 0.05350998044013977, 0.07999451458454132, -0.0019335148390382528, 0.009594598785042763, 8.463268308389615e-09, 0.019478626549243927, -0.004382568411529064, -0.003188642906025052, -0.02837454341351986, -0.032109301537275314, -0.05158698931336403, -0.06211470440030098, -0.1034477949142456, -0.08337616175413132, 0.08683182299137115], [0.11541761457920074, -0.01367542427033186, 3.639781425590627e-05, 0.03503473475575447, 0.04007137939333916, -0.2020406574010849, 0.006133840419352055, 0.025393888354301453, 0.14761365950107574, -0.2308974713087082, 0.06898106634616852, 0.002850478747859597, -0.006829113233834505, -0.02007206343114376, 0.10707902908325195, -0.08912691473960876, 0.019338248297572136, 0.03618498146533966, 0.04872560501098633, 0.050643112510442734, 0.10299484431743622, 0.004023213870823383, -0.06165030226111412, 0.0034200840163975954, -0.006898453459143639, -0.13987120985984802, -0.07803799957036972, -0.07514338940382004, 0.12385864555835724, 0.043946269899606705, 0.00025204592384397984, 0.08413780480623245], [-0.10884157568216324, -0.07438547164201736, -0.0027957558631896973, -0.08053724467754364, 0.05742630735039711, -0.10114888101816177, -0.14991143345832825, 0.22361275553703308, -0.1820199340581894, -0.05042373016476631, 0.06570897251367569, 0.00047619882388971746, -3.6049375040647647e-08, -0.03573177382349968, -0.07453671097755432, -0.11547977477312088, 0.05966127663850784, -0.10487530380487442, 0.200129896402359, -0.10085940361022949, 0.028377337381243706, 4.3699804885832805e-10, 0.21392478048801422, 0.002611330710351467, 0.0004766022029798478, 0.11627549678087234, -0.05507071688771248, -0.05545160174369812, -0.1399557739496231, 0.08780771493911743, 0.3362557888031006, -0.11471328139305115], [-0.019336698576807976, -0.0023690250236541033, 2.750869043666171e-08, 0.044909439980983734, -0.17932358384132385, -0.12951013445854187, 0.0012206974206492305, 0.024180937558412552, 0.0006229334394447505, 0.017247963696718216, -0.03648073226213455, -0.000680233002640307, -0.007012017071247101, 0.10278459638357162, -0.03251287341117859, -0.0764356330037117, -0.05922682583332062, -0.10617072880268097, -0.06335777044296265, -0.011823413893580437, 0.11595986038446426, 1.9518628846526553e-07, -0.11060837656259537, 1.7224859760744948e-08, -9.781982868162231e-08, -0.07678231596946716, 0.03437775745987892, 0.0339733362197876, -0.12257228046655655, 0.025802006945014, -0.02493344247341156, 0.1404738873243332], [-0.01489543728530407, -0.20900996029376984, 0.02046363614499569, -0.19582563638687134, 0.035012297332286835, 0.14917662739753723, -0.3039880394935608, 0.2598588764667511, -0.07101230323314667, 0.27046021819114685, -0.025702977553009987, 0.005734142381697893, 6.419530507173477e-08, 0.0032544853165745735, 0.16616763174533844, -0.022148938849568367, 0.08815581351518631, 0.1953388750553131, -0.15631303191184998, 0.05238348990678787, 0.139187291264534, 1.7730674244376132e-06, 0.2092687338590622, 6.591655221654946e-08, -0.00215907022356987, 0.22963663935661316, -0.025565024465322495, 0.15191736817359924, -0.102267324924469, 0.05823561176657677, 0.1644980013370514, 0.04988040030002594], [-0.02384311705827713, 0.2891198396682739, -0.001287677907384932, 0.1136912927031517, 0.23479875922203064, -0.002084714826196432, 0.23239684104919434, -0.09160368144512177, 0.3995479643344879, 0.10629712790250778, 0.118436798453331, 3.784584023946991e-08, -0.00013558661157730967, 0.1203690841794014, -0.08233554661273956, 0.2785206139087677, 0.20442448556423187, 0.22359302639961243, 0.20099499821662903, -0.00021881939028389752, 0.044714171439409256, -2.369004619140469e-07, 0.020484715700149536, 1.1816387868179845e-09, 2.6101956152047023e-09, -0.17282839119434357, -0.198297381401062, 0.08717402070760727, 0.0034753563813865185, -0.009691290557384491, 0.010358879342675209, 0.007537240162491798], [-0.012053638696670532, 0.1367170512676239, -0.0018794233910739422, 0.13499018549919128, 0.10958400368690491, 0.16181281208992004, 0.24502313137054443, 0.01667606271803379, 0.27143001556396484, -0.11744542419910431, 0.08748577535152435, 1.9356027891603844e-10, 3.1031316893859184e-07, -0.03864719346165657, -0.06878720968961716, 0.11372683942317963, -0.0024237504694610834, 0.068575419485569, 0.10682876408100128, 0.00010632834892021492, -0.010137645527720451, -0.0063007669523358345, -0.07360915839672089, -5.388153256902228e-10, 0.000570667558349669, -0.046333298087120056, -0.05463078245520592, 0.02673456445336342, -0.016915395855903625, -0.08812045305967331, -0.06076100841164589, 0.2244277149438858], [-0.07387517392635345, 0.0891459584236145, -0.00028332561487331986, 0.06971963495016098, -0.0032858536578714848, 0.06086450815200806, 0.08707328885793686, 0.000622410501819104, 0.12729157507419586, -0.142082080245018, 0.14484848082065582, 0.0025721443817019463, 0.000515602994710207, -0.04111483320593834, 0.058422431349754333, 0.041687969118356705, -0.003023614874109626, -0.006135125644505024, 0.04869236797094345, 7.809898670529947e-05, -0.06454961746931076, 1.368956614733463e-09, -0.031658779829740524, -0.007224649656563997, 6.043187283921725e-09, -0.14381888508796692, 0.07663797587156296, 0.10701806098222733, 0.1417483389377594, -0.04805390164256096, 0.04569438844919205, 0.041174087673425674]], "fc2.bias": [0.1619948297739029, 0.14992614090442657, 0.029466694220900536, 0.002016334794461727, 0.012904951348900795, -0.05451791733503342, 0.1939438432455063, 0.0833846926689148, 0.15647636353969574, 0.16625121235847473, 0.07634594291448593, -0.03537437319755554, 0.17794424295425415, 0.21069945394992828, 0.09421594440937042, -0.0064076310954988, 0.16805793344974518, -2.3894435319249396e-09, 0.08861136436462402, 0.044039979577064514, 0.07049225270748138, -0.004695729352533817, 0.0011130248894914985, 0.18024373054504395, 0.06685034185647964, -0.18572157621383667, 0.22217880189418793, -0.023409107699990273, 0.1820605844259262, -0.10299348086118698, 0.09831232577562332, -0.02519608661532402], "fc3.weight": [[-0.0980653390288353, -0.08622117340564728, -0.1105801984667778, -0.018956460058689117, 0.04834417253732681, 0.0015087192878127098, 0.13417981564998627, -0.1840178370475769, -0.18726348876953125, -0.346371054649353, -0.2050514668226242, -0.2878004014492035, 0.022749200463294983, 0.11593342572450638, -0.1676442176103592, -0.2820834219455719, 0.17070698738098145, 2.3000011424301192e-05, -0.034670762717723846, -0.05627531185746193, 0.027959296479821205, 0.004431764595210552, -0.09654778242111206, -0.22628618776798248, -0.15202611684799194, -0.034719068557024, 0.26900163292884827, -0.017019301652908325, 0.22912341356277466, -0.19318459928035736, -0.14848509430885315, -0.11373352259397507]], "fc3.bias": [-0.02307119406759739]}}